9.054177996436572062e-01,6.097668931741728748e-02,-1.426748674596092226e-01
-1.207974519950210102e-01,-1.997582149249041983e-01,4.738190309702019487e-01
9.985526123411789801e-01,7.150713875893854876e-02,-8.061126917156995475e-01
2.126941632801002680e-01,3.265529228762320546e-01,7.424755070933948264e-01
-7.711242750343410002e-01,6.945015623306194374e-01,-9.592328751784002794e-01
-8.133985651913400172e-01,1.892835101965628652e-01,-6.128964791014479552e-01
8.258184943010653534e-01,5.993703819662021814e-03,1.201995811813050263e-01
6.204632432834076283e-01,-5.234048187819264619e-01,-8.353995827094906623e-01
-6.902069248097866261e-01,-7.734739235197671814e-01,2.079820991406646780e-01
4.240438554732977039e-01,-8.961105410333680688e-02,4.620490250453068715e-01
5.401076261748189999e-01,-2.257481508583492058e-02,4.202131542308653600e-01
3.808162576992959458e-01,7.633963012140356774e-01,-4.875653606470751189e-01
2.596219438316529349e-01,-3.405628198960437558e-01,-7.601984016716343273e-01
4.597856166721594473e-01,1.828201821853718823e-01,-3.688915411022268831e-01
-2.459836930810452849e-01,-2.282253489695507120e-01,4.807434064270554863e-01
1.184693020000451291e-01,7.215924040107355442e-01,2.532108674918296387e-01
2.736692914609528682e-01,-1.850011159169047126e-01,-3.508451711136617579e-01
4.511058068902509266e-01,8.908139979253153484e-01,8.992138374354621266e-01
-6.803384399041541020e-01,8.516869525055681400e-01,-7.560684794494232364e-02
4.806625265228141597e-01,2.898951715661088890e-01,-6.326917197373040924e-01
6.957014780816357380e-01,-7.323695267470342607e-01,7.020760553867388953e-01
7.444598001771720597e-01,5.777999703108411822e-01,8.978584322065805701e-01
-2.932612442725714974e-01,-8.191944646730762170e-01,5.023947435286828522e-01
-7.921698031242694338e-01,-9.604765267580028798e-02,-2.976398158625357393e-01
4.284488327926088136e-01,7.541546982371283292e-02,-7.978685991304184100e-01
-8.432931748153900120e-01,-9.473202919535459454e-01,7.055042176451165048e-02
4.473238069029772390e-01,-5.513899846149536987e-01,-4.534047401275689282e-01
-3.462185046853576420e-01,-7.182447702944123602e-01,4.486726318224816268e-01
-2.324555568339208289e-01,-6.758470579140565260e-01,6.583650847483644153e-01
-2.708249926272863206e-01,-5.977443266827591195e-01,3.606980160950867820e-02
-6.231902626115293220e-01,1.435456364240450533e-02,9.793181667603916285e-01
-7.537486409067617465e-02,-4.815832444836884996e-01,-9.422463746520546302e-01
-9.560290512738613966e-01,-7.804484622245553282e-01,6.559269536972711645e-01
3.170997988436257131e-01,-2.395717978647922131e-01,-7.773176176522995640e-01
7.355293408687189061e-01,-2.405373907418797419e-01,-6.252782650134516285e-01
-1.838696819884597655e-01,-1.241412148839018403e-01,-2.974046343379943558e-02
-5.183252907733599812e-01,2.529269070861743796e-01,-8.627283017116866848e-01
-2.300058052645708173e-01,-3.264268755467225613e-01,-6.488653489760685122e-01
-6.723558574237253893e-01,2.650894050576315664e-01,-5.057416421992892985e-01
-2.578757495658912102e-01,5.843218670843193241e-01,-7.654156587979965565e-03
-6.483931211579119225e-01,6.055079846961499701e-01,5.723516776076016388e-01
-9.499464261706498380e-01,-5.958888124858281454e-01,-9.157159369375396096e-01
-9.524704097833187610e-01,8.042688741742873848e-01,-2.263046109506063885e-01
3.507653119629161598e-01,-4.984627457825747676e-01,-7.678336922420874178e-01
-5.000154429939680512e-01,-9.243865158182695829e-01,-5.850817953959022155e-01
-1.545572340614538298e-01,-3.735557075038589137e-01,-2.230145637317075824e-01
9.676353538575772628e-01,-1.347168239034135517e-02,-6.556861748112292609e-01
-1.007688061494558251e-01,2.765779769183849268e-01,6.398617518939300197e-01
9.570716828738359272e-01,1.445778900450740423e-01,3.302959732240817736e-02
-9.471149028477590104e-01,-5.612299472080417573e-01,-9.242162862592733230e-01
1.788766498856315668e-01,-5.881778030115984990e-01,-3.285387369608816499e-03
-3.515994121275665130e-01,2.316120475346514773e-01,-8.033944640411949667e-01
-2.385461941166555633e-02,5.509059021499695952e-01,1.889981694392020017e-01
8.487690107511367543e-01,2.969135645962350800e-01,-8.297704628804938309e-01
-8.808911556021090661e-01,-8.869183187133593549e-01,3.206641029496659634e-01
6.371088518193193106e-01,1.966101195462939266e-01,-4.141043929270700197e-01
-7.307399019260574224e-01,8.253049149133109275e-01,1.461975423547861030e-01
-3.949492850923386200e-03,-6.528567068095783021e-01,1.304436026001558613e-01
-3.842881940382874006e-01,7.592718625658059217e-01,7.680268637158012002e-01
9.190842843098196990e-01,-7.659974982773598562e-02,7.437812771034006953e-01
8.995473280895773804e-01,-5.427113006442232379e-01,7.782222029458818469e-02
-9.727490614489189280e-01,1.567957313368517624e-01,9.943341981240381156e-01
9.864245030241118872e-01,6.786615457138660545e-01,-7.747828856458991442e-01
9.176967312476989047e-01,3.195216211122968719e-01,-8.577170582547775091e-01
6.734140343649501759e-01,4.878558337227061337e-01,5.201134775954541212e-02
-4.815270240518993994e-01,-1.179325658175829350e-01,9.436535876253386856e-01
5.770943719862346999e-01,5.327688828145891176e-01,-9.885817543402186658e-01
-1.968439138366573360e-02,9.412908215965396508e-01,7.799336936658827213e-01
-7.272885326657818617e-01,-9.872508893263955976e-01,5.279425349309811999e-01
6.021909212827436519e-01,-3.893839483792518319e-01,-7.569876496465910432e-01
-4.245119575979534599e-01,7.744380363286595959e-01,-7.465782401337202057e-01
3.845451806291571017e-01,-6.604864721215832901e-01,8.992909520834238002e-01
5.683046066085251091e-01,9.723148568613897424e-01,-8.576136596387973210e-01
7.275679899293583386e-01,-7.226955719893246588e-01,8.137012017980027601e-02
3.862719974583821436e-01,-6.218184472480001723e-01,7.698305540871570596e-01
-3.923014495005814339e-01,-8.277623279917618593e-01,2.684377056263500538e-01
-5.707392257347811970e-01,-3.530023145773180104e-01,-7.762485978078954574e-01
9.092509438436209290e-01,-5.118638127270151994e-01,-1.159999599288457084e-01
6.115254002657584120e-01,6.977496484389278386e-02,-5.293765042385265573e-01
-8.857831920497640787e-01,-3.706743918885480049e-01,-5.739167721583005033e-01
-4.253913358482985796e-01,-2.937850975494797900e-01,5.263855026645347657e-02
-1.418962145696371913e-01,4.617794163224386850e-01,-4.628882967285898875e-01
-8.361241973833744012e-02,6.447779129448414359e-01,9.574804818893702940e-01
1.655971008488366092e-01,-5.754976271677825217e-01,-9.461718947072499386e-01
6.709236558616218371e-01,-7.102022941665315781e-01,-1.484750804208401220e-03
-5.213415028262939899e-01,-6.944767373936733268e-01,-9.791083520719736644e-01
2.635387205279222655e-01,9.833837096072661765e-02,-5.195274711368469411e-02
-8.912715288981085671e-01,6.472936629518679652e-01,-4.690064775779181350e-01
-2.511366530596250701e-01,9.588966573874786459e-01,1.082894309777893138e-01
-4.602092665906205582e-01,-3.948548713970296831e-01,-1.218140224235602087e-01
8.376616096231741526e-01,-6.831909398355096030e-02,-3.734073269123183714e-02
-8.304821553532235612e-01,9.843351260721260321e-01,-5.805068064721716770e-01
4.497824511582604323e-02,-4.194580710763085030e-01,-8.648993519727476986e-02
1.734715597872924508e-01,5.205694779182694631e-01,-3.274151620417120601e-01
-7.559567616735101137e-01,-1.818497000064684954e-01,8.254938490215801838e-01
-3.753740686042563723e-01,1.936287715294759959e-01,2.413146165672526156e-01
6.544619036217709240e-01,6.595584412995112444e-01,9.574578662334842782e-01
8.669544668832265266e-01,-2.720378522705584334e-01,-5.781449630174717580e-01
-6.007319967709359165e-01,-2.990128550748130110e-01,6.717358503226880106e-01
-3.708129021169259687e-01,5.082882293329169521e-01,8.596735589730410965e-01
9.719521285665218002e-01,6.920641768107276270e-01,6.941953038715515945e-01
6.012957629000352799e-01,-7.900033642391941502e-01,7.230466651250802013e-01
6.365297818436355115e-02,-3.855938491530634948e-01,-9.539247817427904952e-01
3.326436384349396036e-02,-6.544296783520293648e-01,-3.485141672387259693e-01
5.058105131340868699e-01,-8.188004345272659190e-01,8.490697892072314179e-01
-3.026148887966637613e-01,-3.815452693660581485e-01,-6.650702660519811626e-01
-1.754294873830735124e-01,-2.947665623066220153e-01,-5.770758104774462716e-01
8.513366263360910846e-01,9.537095596653106799e-01,-9.850740690394874655e-01
-3.304043134688121608e-01,-7.900537259379420973e-01,6.154044848974955517e-01
-1.954951333173988726e-01,9.306471114467129713e-01,7.942681377097824402e-01
7.176259435348624205e-01,-8.595167861878834081e-01,2.949139875615331974e-01
-5.016453317278837254e-01,-4.529942620102354045e-01,1.796134320312445798e-01
8.916457342958041821e-01,-9.443024236102681712e-02,-2.594724380361446148e-01
6.839687930060125431e-01,-9.646815204649099584e-01,-9.913869485632846867e-01
3.510814752633810709e-01,4.025019914682137490e-02,8.143305863515808429e-01
-8.402631340958355288e-01,-4.504680760232915304e-02,-2.156386690384926030e-01
2.309698359963527903e-01,-4.307246024120625627e-02,-3.951875702154628023e-01
7.092480984143845202e-01,1.800476248694042880e-01,6.969522477823932860e-01
2.985308571663698451e-01,6.245651595630818953e-01,9.296584943835839443e-01
3.257996305067121234e-01,-9.673818658292687722e-01,-9.345209785217680754e-01
-6.537894134608293051e-01,6.458041318556233534e-01,7.885736173299890961e-01
-1.412884114010035663e-01,-3.988230828380474602e-01,-4.750557891081923501e-01
7.119224787977780355e-01,7.928823471330017636e-01,-1.038199044706873408e-01
-4.540259184647101875e-01,-4.076396622889959520e-01,-5.001995844998234908e-01
-9.561378032672365190e-01,-6.080430109419499018e-02,-5.633706146961288130e-01
-6.822966691992438104e-01,8.902434297717438660e-01,8.128741628679252429e-01
1.160949304907603619e-01,-3.566685129463715853e-01,-8.950624997855538556e-01
-3.071160592310790971e-01,9.374689546671131080e-01,1.921102677870560882e-01
-6.303883627578592552e-01,8.295894872489302241e-01,-4.837568793228030906e-01
2.238451119659532473e-01,-6.896853611554805141e-01,5.526313620827969508e-01
4.708778483029218975e-02,3.219138509438173035e-01,5.877181857929389963e-01
-1.772149437587924314e-01,-1.609990070971205611e-01,6.264640509575587490e-01
-2.885441438801223946e-01,-9.869405104255162264e-01,-6.438937901724772761e-01
-3.191705245255505030e-01,3.540870550522328131e-01,-8.663626612948160943e-01
3.896884626284240483e-01,-1.019414868689354492e-01,9.924262715948219959e-01
-7.235340695847980452e-01,7.670241755600364364e-01,-5.317564743198228694e-01
5.569750764141285782e-01,-2.133693821235755905e-01,-1.303466591905368954e-01
-7.968545719772086589e-01,-1.491601533533819524e-01,-9.953541559864038657e-01
3.857910432019771019e-01,2.566019563569221784e-01,-8.238743826258487779e-02
7.353811774940040014e-01,-2.640410142362565882e-01,5.269912249069264032e-01
8.343776398258211380e-01,-6.966125844049124716e-01,-5.315388482305898332e-01
-7.880094178389893678e-01,-1.911779038715548662e-01,-5.529444023080822834e-01
-8.246942807852923885e-01,-4.860770036491102175e-03,2.554976850010579614e-01
-6.128818763003425207e-01,9.286987534089579110e-01,-3.733506198613487648e-01
1.643901902595479303e-01,2.509051458111444255e-02,-8.922477360839684568e-01
3.674661268651131518e-01,-8.939771738440489557e-01,-2.676636255764326400e-01
-1.616924236995540554e-01,8.147713365257813756e-01,5.289196666611710729e-01
-1.551868045928992412e-01,5.380182386618603818e-01,-7.531725097347006237e-01
3.005663704900392030e-01,5.767399530854608880e-01,4.397840644197335003e-01
8.727797556970307014e-02,9.905526974906440074e-01,-1.966632545780804264e-01
7.442833448367074389e-01,-8.735593709874476254e-01,6.572171292566086898e-01
1.426110931317627895e-01,5.398322410076037414e-01,-5.509386177509916216e-01
-5.522978388821049300e-01,3.492818081282897946e-01,-4.250376240623894297e-01
-3.856237922365197690e-01,-6.763144134156391374e-01,-6.415942440761088772e-01
-9.425541481492567542e-01,-2.282721681631039168e-01,-5.217220955578008024e-01
8.585631355329588210e-01,5.233512570863614322e-01,8.091914039532992486e-01
8.353938625914656413e-01,2.123704519917419820e-01,-5.183370814336085708e-02
-2.518712177614794712e-01,-1.450490075374595289e-01,8.578548525328959506e-01
1.961764668124492683e-01,-6.074467430390755318e-01,5.957860857329067006e-01
5.468092427058091065e-01,-4.386452697958227454e-01,7.663972319797522914e-01
3.388292859944461721e-01,3.361114243350713515e-01,-7.995401548343596954e-01
-6.102819141135593650e-01,2.423075012739714929e-01,-8.728780346281803659e-01
6.781697217676521117e-01,-1.651365711433734340e-01,3.934827412631847210e-03
-9.836182960231827366e-01,-4.982214600430574514e-01,-6.542526586503085717e-01
5.198904379096582762e-01,-9.134733624374242744e-01,-4.202122891840023300e-01
8.351282149746972472e-01,-7.422166030350496602e-01,-1.866159516604173341e-01
-4.655455426531827090e-01,5.831536667685919273e-01,-2.228968564836815158e-01
7.681021184771650301e-01,-7.129757361278246108e-01,8.297876264685573044e-01
-9.443563847745082285e-01,-8.796180598944420836e-01,-4.425202994031285364e-02
-1.222721075539145996e-01,-4.346581811896546022e-01,-4.054999625539277286e-01
-9.124976871940442269e-01,-9.287836941132754376e-02,7.148005046183099065e-01
2.406104026331630230e-01,-6.165305665081783904e-01,-5.290380660388009915e-01
9.952683298381397314e-01,2.636327047475892638e-01,8.734289506773298406e-01
8.404706927858329735e-02,2.035204117309532545e-01,1.021179364020308178e-02
-7.833372086909693444e-01,-8.443776490841352622e-01,-1.102229385515318683e-01
6.238196045175548043e-01,3.673604554829903446e-01,-4.581201078625687373e-01
-8.657018533343243671e-01,-3.311255646765474125e-01,-4.137288496032758278e-01
5.236302656284446133e-01,5.108185873617383521e-01,-8.699471726598484445e-01
-9.471001606951470198e-01,3.272992646282690821e-02,-9.177241345197830746e-01
-4.697322389629876582e-01,-5.761234275549109718e-01,4.553128205960152997e-01
-4.421786818344253245e-01,-4.609800658685556662e-01,5.550364377591154863e-01
4.179159680399697763e-01,-2.135194058082874324e-01,6.884915624482541574e-01
8.902152039106092651e-02,-1.571234177192202264e-01,4.751028378627819571e-02
-6.877888580460080892e-01,2.703856868162992644e-01,-2.922149159082665371e-01
-6.567481997114721359e-02,-2.570489135172076001e-01,-2.037530877247073491e-01
-7.481505482759949199e-01,-3.076642227060928381e-01,-8.159248293770224869e-01
4.655561838410755549e-01,1.366088597022334650e-01,1.619752372924343486e-01
5.970267351856224369e-01,-7.849344395922677187e-01,-3.861381947670490256e-01
-4.917968053149901486e-02,-2.400067791274522744e-01,-9.902676088488202577e-01
-9.760777292913667136e-01,5.900707678833951864e-01,1.598502773790315690e-01
8.433145832814021858e-01,6.787372907646100906e-01,5.402744754148898210e-01
3.703219334704188626e-03,-3.883586684546285195e-01,1.745708467329305513e-01
-8.907626783524309477e-01,-5.102483496374994321e-01,-9.752806860962717206e-01
4.351040083845902906e-02,4.011998934498071101e-01,-9.844433956815838993e-01
6.795796547558694556e-01,9.351742767728639105e-01,-2.546986301164415600e-01
5.953302070353005959e-02,-8.251364752288692372e-01,-4.141540548207292005e-01
4.056291686145589992e-01,-6.091664602471031920e-01,6.823942511527332222e-01
-7.232933203981948278e-01,5.517408549521007899e-01,-5.102162944221424468e-01
3.301532852058077783e-01,-2.008157316589209707e-02,-2.684245697474230141e-02
-1.665316313492812839e-01,-8.536189480810110197e-01,4.995215880665435648e-01
-5.708773541860221457e-01,-9.595058462014063316e-01,6.972616602019794385e-01
8.146506468061955886e-01,-5.228753490767450440e-01,-1.305352176676761733e-01
4.031031319310256489e-01,-3.879176023389525607e-01,-5.864378319803580375e-01
4.341734361916687046e-01,-3.377826700433643747e-01,-7.952302029458793164e-01
-6.618917781781474829e-03,-1.896843607627116679e-01,4.242027868565041437e-01
4.091741300444480256e-01,-9.068680470379675285e-03,1.024678817532196362e-01
-9.956449825993680669e-01,-6.346480726505252523e-01,9.672365863258551855e-01
-8.578656345726285437e-01,7.050066903703076093e-01,6.306659318648895063e-01
-9.383186399583935966e-01,7.180827282435862102e-01,9.273513962297397217e-01
6.842949858130473739e-01,-9.987559699258805601e-01,4.837537468258177320e-01
2.178641692916911676e-01,4.145515742974716922e-01,5.188500267418894030e-01
-8.324305304954744411e-01,6.853824993883872452e-02,-9.597802017073642222e-01
-2.406665274322064008e-01,6.169405410553197022e-02,8.710349551491058939e-02
-5.172401295499895468e-02,-8.869983117354816038e-01,4.156795360136911199e-02
8.874982673940361444e-01,-7.258454071504372163e-01,1.666768872613135777e-01
9.632574161462899021e-01,2.142977477004031073e-01,-9.784446386001564022e-01
-5.366799565590727461e-01,-5.234644701031005987e-01,-5.335429837738463466e-01
8.457389718816437085e-01,-7.119514613891488874e-01,-8.092197738924724604e-01
9.959819073280302693e-01,7.539224042805676707e-01,7.426257074206716879e-01
-6.527978866177139849e-01,-2.005280485578440075e-01,-8.451045554886047473e-01
6.648236241898985988e-01,1.442962206775524336e-01,2.241432558966816035e-01
5.130909746066310007e-01,9.929077201504479255e-01,2.785714086575368231e-01
7.056517006504974265e-01,4.931220763570360877e-01,-2.605503754991334020e-01
1.715270798634649374e-01,4.343108311114238784e-01,-5.971681969104709609e-01
9.038688779860186706e-01,7.662023101474835229e-01,-9.858963867484531463e-01
-2.814016984689609036e-01,-3.791825732810434335e-01,9.635648873369309086e-01
-9.787910738136662570e-01,-8.492003062598454388e-01,2.927480662191186411e-01
3.592746122405303666e-01,-4.139185212053517748e-01,-3.134854467347474305e-01
-7.110127321268655542e-01,7.670321717231376457e-01,9.691551919226726319e-01
-8.786237590253762608e-01,2.500776450161283915e-01,5.979644164783965987e-01
-6.182543294581077653e-02,6.902509133296397259e-02,4.079172618739574929e-01
-5.991986917472083007e-01,1.945401499465371220e-01,-1.380138161505501948e-01
2.859006316856558261e-01,9.131239481567450245e-01,-4.562091288352410068e-02
-3.155354165816850465e-01,2.720750750944245233e-02,-1.363570721426525800e-01
-3.977448550982611852e-01,-7.617446265731087074e-02,7.918486278817624680e-01
1.516718241511421095e-01,-1.850545021262717249e-01,-2.801738152308688168e-01
5.238990402718066708e-01,1.994874582881167591e-01,4.403009647764148937e-01
7.076623336481464577e-01,5.964158378614483613e-01,-8.177580152295076399e-01
2.007731588935031120e-01,7.958588323428008593e-01,8.190621118416108182e-02
9.601971445083012924e-03,8.428126615634450314e-01,2.350522777655728035e-02
-5.215572013719993461e-01,1.847626510817141909e-01,-2.187136701818528373e-01
2.021208217803474039e-01,-3.726957602382126034e-01,-1.670322040136840158e-01
-5.788887832291265134e-01,-5.245928077386492472e-01,-5.767243793957090858e-01
-2.875322301049549889e-01,-7.927584530682652009e-02,-7.756059766472960249e-01
-8.165700011391674451e-02,6.437010698161629296e-01,5.040466823146763087e-01
2.038504072047138127e-01,-1.243673113549366160e-01,2.878025893034033000e-01
-3.669335529322836909e-01,6.551728826809626316e-01,-3.864865485224382446e-01
5.542133315149984085e-01,-5.099435361254305299e-01,-9.853495897437063444e-01
-1.895339099574284702e-01,4.525271041654874704e-01,-2.762070533763913982e-01
-3.029967000979472136e-01,-5.141212218688884228e-01,8.962774869779677189e-02
5.939823034152120762e-01,-4.081888380997655830e-01,8.398788524644136277e-01
-6.066033954465135380e-01,-5.902742792307325015e-01,-2.472954595938503530e-02
-8.731146902961501866e-01,9.134066026497811297e-01,6.766690633648764219e-01
-3.984697669549612797e-01,8.037517961647355769e-02,-4.302908010773289771e-01
8.610843662774403384e-01,-8.639119815230411614e-01,3.130786646476046986e-01
6.205218762348778672e-01,-9.051091008574845276e-01,-5.893185299517180731e-01
1.935887531618580848e-01,-1.370528542675055750e-01,-5.359328281367199409e-01
4.816171773072241979e-01,-9.306245811231916854e-02,8.301397854933596498e-01
-3.108966159597321699e-01,-3.257227032542469036e-01,-9.188161366656220075e-01
-1.725891748694698968e-01,3.680667288544789972e-01,4.105226938969066541e-01
7.836740194654481240e-01,-5.586487043092773774e-01,8.163658831226783263e-01
-9.097605212233224048e-01,4.220098774484741799e-01,5.512003410684120919e-01
5.298682940574621636e-01,-4.585175799016538711e-01,5.311943875677604954e-01
-4.464124812946610454e-01,1.556357141259874233e-01,-3.084419597722785067e-01
6.224199500260767515e-01,6.479626564323410776e-01,-3.429335808755977766e-01
-1.467260793326321533e-01,4.692294635211480269e-01,4.861619963256995636e-01
7.968412601186032340e-01,5.988719109911135874e-01,-3.690333477914773397e-01
3.315979316996655601e-01,-8.042026372217818686e-01,-2.968550987995102197e-01
-6.353178582525167428e-01,2.039157509959388381e-01,5.252174669052274147e-01
9.303182646054519722e-01,-9.828866313259387866e-02,5.225182632182807652e-01
-5.476925324735897327e-01,7.791299418931028065e-01,-7.912932360986244529e-01
8.123180236399558662e-01,-5.296804535826742377e-01,-4.401305454278559015e-01
-7.547894783272586228e-01,-6.558226638910880091e-02,4.481555145816304986e-01
8.065320537534992340e-02,-5.746752747129326711e-01,2.670963350977333395e-01
-7.074257058965534029e-01,-4.490981614376106101e-01,1.121232188497987003e-01
-4.498696367653387540e-02,9.933384469899095848e-01,-8.944336526213816363e-01
6.651750342247024772e-01,-6.387543901743497621e-01,-2.132520647224318555e-01
-1.361988860400982215e-01,5.626371106553085255e-02,-3.035439445554986015e-01
7.546440559382932012e-01,-6.157053718873277681e-01,5.316881617224828993e-01
9.650112335014509046e-01,-8.164287341013212185e-01,-9.400867431083259618e-02
-6.781145759959674724e-01,-4.783779015703313320e-01,8.856121244608523568e-01
-2.966875305294109921e-01,-1.614972030343377885e-01,1.937946309821003688e-01
-9.441116160406786140e-01,-1.593112296521170812e-02,-2.494608113193492738e-01
5.758363831678423583e-01,6.005747781522854378e-01,-1.077757268281804848e-01
4.158563930053726931e-01,3.175971933175860684e-01,1.623426660704934132e-01
8.945233320060763660e-01,-3.949740942733270810e-01,-6.097154362785477399e-01
-7.229706012352274946e-01,5.444530522798747274e-01,6.456756223351001189e-02
5.350538251229930431e-01,7.848948694922501801e-01,-4.392256431203001021e-02
4.248971054292016714e-01,6.240860350511940879e-01,3.237606856080836870e-01
-5.948117287979666212e-01,4.609405893602405158e-01,-6.634225360432124408e-01
5.075989149532831313e-01,5.275276848766834448e-01,6.885698981533223684e-01
7.147445917403405513e-01,-7.823648432645153861e-01,-6.230853781530565350e-01
1.775039396510191825e-01,1.637161242769769043e-01,3.417687579120847197e-01
-9.959026713285683563e-01,-5.949519580549393893e-01,5.029290834004167543e-01
5.206363498604371642e-03,-9.368895267577828090e-01,-3.834837052676420832e-02
5.546122223798832795e-01,-3.974016597325105149e-01,-5.122934633480096256e-01
5.955592488368945947e-01,1.001868770963487698e-01,7.560503178524993206e-01
9.735041202405891880e-01,3.625714377014965795e-01,5.532872330419571494e-01
-6.606775721166613380e-01,-2.117969584723335963e-01,8.304805189437547419e-01
-4.209294999003116988e-01,-6.356645262690989728e-01,5.583438937459492823e-01
7.188326896599188665e-01,1.944623286922866345e-01,5.689468251771323537e-01
-3.240925130843297364e-01,4.403185985938051772e-01,2.915781815230087393e-01
2.162344787697487725e-01,4.585567405619754844e-01,3.909088467248311716e-01
-5.269293344744265806e-01,-1.520335531044751942e-01,-4.854015776064475318e-01
-2.853730351217600436e-01,-3.039615191308695508e-01,7.030709716764256267e-01
4.762393941457687685e-01,1.892106551500141176e-01,3.217304977687740486e-01
2.262332025058300111e-01,7.675243834857501390e-01,9.085620068168041019e-01
-9.159574151257303676e-01,-4.698043024531330936e-01,-5.616492526114911232e-01
-9.143101419419421561e-01,6.815612295323023595e-01,-3.323208617433017764e-01
4.592927058573597066e-01,7.307610354319655777e-01,-1.932066049688170306e-01
5.526547257458473972e-01,5.810974693436248284e-01,-3.939577994902303537e-01
-5.555917201507361014e-01,6.794367671167258482e-01,4.636947682022807271e-01
3.243626646969701710e-01,-9.906033838092913602e-01,-6.582115897060767384e-01
6.799993792914336144e-01,4.409698750180957028e-02,-1.344091392526072237e-01
-5.385935829077062031e-01,6.307598101585154549e-01,3.679225879727665571e-01
-7.764515596907719530e-01,7.253919441777798571e-01,6.494581913294132924e-01
-7.845356459109735781e-01,-8.308543415514477726e-01,-7.094068852887984722e-01
1.233287271112695205e-01,-2.800558620385262820e-02,2.786883382554508071e-01
-6.246750953288557895e-01,7.931436390676571691e-02,-5.693914744256138860e-01
-3.744262628521310976e-01,-5.226134382824068059e-01,-4.038155773070304377e-01
3.223467084006386152e-01,-6.820586312754786107e-01,-2.658950520758880387e-01
7.209892229899452776e-01,2.877793885556949594e-01,-9.698156901665608842e-01
5.163426007029490172e-01,2.697001158118172981e-01,-1.528072539878677638e-02
2.772198464693540476e-01,-6.960666288238748223e-02,-8.255209873644904217e-01
6.273509170265871848e-01,1.793839127651051246e-01,3.658442700295212457e-01
-4.979879911499514034e-01,2.058125659572698218e-01,7.549852362862479183e-01
-8.284516465190807644e-01,-2.485381084122728623e-02,-8.720487414075923649e-01
-7.217481602153081877e-01,-2.885355064640453548e-01,-9.520826597525746671e-01
-1.399284292736571178e-01,7.893647065758255810e-01,1.862497430265088738e-01
-4.426008382648969341e-01,7.750549547158003261e-01,4.404089927212151423e-01
-5.241977869962481940e-01,3.237226116813929355e-01,-7.064232591978540921e-01
-7.130841837809853700e-01,-2.401659242959590657e-01,-6.530857535225986776e-01
-3.598347177972143207e-01,-4.684645664544189181e-01,-2.913550007709160283e-01
-1.951817985532391386e-01,5.569083825941611998e-01,-1.699727119072527159e-01
1.768795656577950570e-01,-6.018520372656377404e-02,-5.781992142260055090e-01
-9.524353842783450652e-01,5.537496781897932596e-01,-3.656750842966789428e-01
-7.941077335744206600e-02,2.990316933688534906e-01,8.743808008590721048e-01
-5.949824782082453467e-01,-6.642765451364882612e-01,-7.993184612620114482e-01
-6.914649160670736094e-01,-9.176017319199423206e-01,-5.615470981932497718e-01
8.496177068849442016e-01,-1.510430694642961313e-01,4.697881919108990445e-01
9.638903602354795819e-01,1.932690757128734393e-01,-7.727712654903660106e-01
-5.012694494753575647e-01,-3.464390564586259380e-01,6.426361373184967807e-01
-9.606844941602814547e-01,6.677194188975195122e-01,-5.183283934156164285e-01
-6.794478204895493256e-02,3.296382310419130324e-01,8.093943851293001757e-01
-1.976827775067813153e-01,-1.506270236714501998e-01,-2.309357766261133094e-01
2.703615774527818871e-01,-6.137836036778834270e-01,1.381666050605809826e-01
4.909591955190999446e-01,-6.879740139771117757e-01,5.563122235367310431e-01
4.192860045675632641e-01,-9.704894613011336713e-01,-6.538020209428225815e-01
9.462704321430599474e-01,6.879667993289930727e-01,-1.830872648301447025e-01
5.353662752660999224e-01,-1.319423729104887144e-01,7.356546830453059016e-01
4.119384278168849445e-01,6.854045685917082853e-01,-5.553552331071753834e-01
-6.092796038142178627e-01,4.613142214232999194e-01,-9.762819755338645322e-01
-3.080063222026918623e-03,4.483003358521999715e-01,-5.773215396557442869e-01
-7.565513967530550499e-01,2.876300693616946624e-01,8.986138288471621216e-01
1.859566811783843754e-01,5.249020604695242564e-01,6.534066009969652367e-01
-1.954748891055371196e-01,-3.301083867517793369e-01,6.512176884653178011e-01
6.565657154493353964e-01,-4.693921519314154800e-01,9.314702927669284982e-01
-8.784689527625011429e-01,-7.998238717430834477e-01,-5.031892510788817940e-01
4.183356791055306001e-01,7.613801486489253367e-01,-4.575205529423878037e-01
-7.962780900730013212e-01,-8.847738913652536397e-03,-6.601668731572596371e-01
4.342924230379541228e-02,-8.523374773334206900e-01,1.548868287040614522e-01
2.101032267378188934e-02,-8.049065628818414808e-01,-2.791608274327754824e-01
5.238446769299818229e-01,-3.484942852443553285e-01,-4.074391827594305848e-01
-9.188209898771504403e-01,-6.448896838923030561e-01,7.525347921833900333e-01
-1.589729989111576813e-01,-5.592503009869134178e-01,-5.427296991908860946e-01
3.424852385741117278e-01,-2.004931398333240633e-01,-4.090052368560970208e-01
-8.430946047243965680e-01,-2.124006250645693594e-01,-4.104364022731932238e-01
5.001855700520190240e-01,-5.137363915597317199e-01,8.289353946981534715e-01
-1.709900050576396158e-01,5.286923748971950054e-01,-9.128105052959736287e-01
-6.224537212420411247e-01,-9.436113271541191061e-01,-1.439593075003284817e-01
-1.356818961639225662e-01,9.839315730662998583e-01,7.593508205452605964e-01
6.288924523943710820e-01,-4.550415871583355365e-01,-2.038643417401704294e-01
2.532716258595701930e-01,-2.541844364693770508e-01,1.914383896116842454e-01
-9.667406343769806565e-01,-3.928811182185323325e-01,-1.241772215506842247e-01
-5.500580266142378605e-01,1.760173210457967041e-01,-1.871960043436937671e-01
-4.967339154839207627e-01,9.462159388183153386e-01,2.712821777324858630e-02
7.648836144538662118e-02,-8.797613549100691266e-01,3.410508601795652073e-01
1.465941910522940983e-01,-9.003481387478444731e-01,7.848228486165311768e-01
-6.943602731594022970e-01,-4.724499843432914403e-01,5.018989592629008456e-01
7.099147894337716203e-01,-5.103278693122526022e-02,-8.073493764893946434e-01
-7.996613137814760908e-01,-7.250308780937364528e-01,-8.228290329128202796e-01
-6.309713955327440615e-01,-2.768555619619981201e-01,3.419651387754107930e-02
-7.583817783766166887e-01,5.299925067712907278e-01,9.992156618260323864e-01
-6.478869627780583507e-01,-9.136319379825641462e-02,-6.329167738429466450e-01
4.633063399540451321e-01,6.490026601109093463e-01,-4.361063402659868249e-01
-8.045635399566046786e-01,2.007245041435243849e-01,4.511778370245438374e-01
6.567674317552472107e-01,-6.130675814659014566e-01,8.715212244690175858e-01
2.960557894873625528e-01,-9.295184107642415761e-01,1.658919202584718811e-02
5.193246153039643431e-01,8.218555956769475479e-01,6.204504630590352843e-01
-3.232614790970751439e-01,-4.935704741472892731e-01,9.156765979938825684e-01
8.480709893605875571e-02,-3.896857106469540089e-01,-1.685149395918028592e-01
-7.239468864767073519e-01,6.012357309087612567e-01,-4.983935922025000131e-01
6.458713171998251568e-01,-7.895009867379947366e-01,-9.163753867564390365e-01
4.264591797813628293e-01,2.621584227323601191e-01,-9.971020244629333895e-01
-4.973217296106169361e-01,6.873911028155714753e-01,3.846811958180533786e-01
-1.171466816581610004e-01,-6.617329856886913220e-01,-7.668105135681035911e-02
8.931862065765450165e-01,-7.478536403326667692e-01,6.461468474841385312e-01
-3.836967117881437961e-01,-5.925027906611868289e-02,6.309026375166355560e-01
9.007033364418848276e-01,9.416218702310819033e-01,2.508674057830555526e-01
-3.606494694481110486e-02,-5.084280250663848477e-01,-6.817260347963971512e-01
-5.000860357104901510e-01,4.064157980774962819e-01,8.404504847616593999e-01
8.981682421563619290e-01,7.897685648462116070e-02,4.352923750526092039e-01
-2.460942589436763139e-01,-2.341931870205782307e-01,-1.815278444206605002e-01
7.707539512342738153e-01,-3.852521494223053455e-01,-8.075978358483306696e-01
9.916841721265483578e-01,-7.217765486602443215e-01,3.920890568714578972e-01
2.603028332277828039e-01,-5.028854489388792093e-01,5.699969531444286641e-01
-2.322627521630717951e-01,-1.488834622828552057e-01,-1.455174649651844732e-01
-5.099310338430760314e-01,-9.053380370808776778e-01,-1.477171848291636280e-02
4.906542527646040597e-02,-8.579919593507152609e-01,-7.702675330840569323e-01
-1.896383869718587523e-01,-2.472709463051225853e-01,-6.225386535414307865e-01
2.191785331975371065e-01,-3.143240981456414396e-01,-5.588997053742159604e-01
6.722408680693865435e-01,3.351020085592124609e-01,-1.051141946491800372e-01
-8.795223074521838491e-01,4.567760986174416171e-01,4.685466866908540862e-01
-9.415124349403700688e-01,1.107401935941039195e-01,-6.317781204692780594e-01
-9.084501622817842126e-01,7.356515784498507404e-01,-1.743938352375116185e-01
-3.921677949672541796e-01,-2.463654186086146058e-01,-6.454636685205894508e-02
-3.201372253609009455e-01,4.198339018647634369e-02,-3.729687823126996982e-01
5.000727130827749001e-01,-6.528785349467904897e-01,-1.042485608958010346e-01
1.687081063336282050e-02,3.441909107989460370e-01,-6.127961285584613282e-01
-9.269073707420558694e-01,2.895420954334770869e-02,-3.682544148972954901e-04
-4.232715584186672597e-01,9.456961529803120658e-01,7.598558006408007159e-02
-7.019131359769428258e-01,2.164001347582924506e-01,1.098152809862900092e-01
-3.603221257347635209e-01,-1.898050249431264547e-01,5.308375354824046433e-01
3.001537475532796151e-01,8.570719237632575815e-01,6.878453633128844835e-02
9.891912448587696360e-01,6.954042967867752889e-01,-6.205425948455041141e-01
5.224474399784062584e-01,-5.163857486031429023e-01,7.852689838685924517e-01
6.449092990561473560e-01,1.162618463814257819e-01,4.797681599198524438e-01
2.849125230828186695e-02,8.347972179585323449e-01,-7.378025631409512730e-01
-5.435831509067157175e-01,-4.382642800727576393e-02,-3.194485892030485275e-02
1.061769709939603956e-01,7.201727846537924194e-01,-6.379271418160190610e-01
7.180354217824660434e-01,9.784112009862568904e-01,-8.577554840036802908e-01
-2.251970656949575655e-02,-1.011566665959098277e-01,9.895901121123042987e-01
-8.134965745492903633e-01,6.734590588590003701e-01,9.572133654699188643e-01
6.476365262016872126e-01,-1.924289513615473624e-02,9.037673359166675802e-02
-3.124833192992491071e-01,8.743739469815652310e-01,-6.677390615518263850e-02
-9.646813736969717112e-02,-6.919676558071718997e-01,-4.945502778928052567e-01
1.879192830099658540e-01,8.198552790199076235e-02,6.256380839694692941e-01
-1.186255726788645326e-01,7.426078962543265494e-01,6.283022497791890260e-02
4.677377185819049377e-01,5.426649134335184144e-01,-6.527308844365331542e-01
-1.407888337030103187e-01,-5.502362409413259492e-01,-2.551702256179131378e-01
7.639555877466768230e-01,9.240620649278656895e-01,8.336005570218920635e-01
7.072730764811114845e-01,3.437167012435609070e-01,2.472884919326274744e-01
1.475244748207789058e-01,8.418486366305912849e-01,-4.626156875310096783e-01
-1.106050455130997978e-01,-1.398251520377487012e-01,-8.296999289283357726e-02
2.552347476953342742e-01,2.166751805952811250e-01,-8.142540691740429715e-02
7.692066984878171976e-01,3.008234974615413559e-01,-9.650492229380680520e-01
-5.288543825306053492e-01,2.356435952345032891e-01,1.509244770683793035e-01
-4.571769113420247610e-01,3.957330289990830252e-01,2.277305701200844634e-01
7.282436197116199939e-01,-9.478473708992551927e-01,-7.243795545225562016e-01
8.630076172737941587e-01,-7.950114525880724869e-01,7.484169466255436998e-01
2.424228141066004927e-01,-1.932140069652268366e-01,-4.200784369584011912e-01
-1.333329349907204087e-01,-5.523554404769019932e-01,-5.072123425147780917e-01
1.796255907132089380e-01,7.632894842044648520e-01,2.609980830950060504e-01
-3.926377675869388018e-01,-2.667599226382786348e-01,-6.737455501591720353e-01
8.545010608084679937e-02,1.803387022383433624e-01,8.572912292258489941e-01
-2.860700032700529416e-01,-6.285584332202320823e-02,-6.690160509783160681e-01
-8.403559211363287318e-01,-6.683698215187732217e-01,-3.680266506070930532e-01
-2.921300392391572576e-01,-3.841093166300852957e-01,-2.889272505023048332e-01
-9.494422693399002799e-01,-4.823785256544395050e-01,9.086094023432278455e-02
9.360483118019122806e-01,3.457058387797566912e-01,5.750903806740992330e-02
-8.821555108844119086e-01,-1.127279172595341272e-01,-7.644077648673861525e-01
-6.739568469355909919e-01,-2.022155844422441895e-01,-4.658121539819937151e-01
-1.020646902092794406e-01,8.561289403471603610e-01,-3.393617500539560794e-01
-5.762781815990831724e-01,-9.360008799778762878e-02,-4.051301801579703099e-01
-9.081502875289282350e-01,-5.943076680699894698e-01,-8.830599661443914172e-01
-2.251863119447923278e-01,-5.432659608994512279e-01,3.368255807144593383e-01
9.694237910343184161e-01,-8.672996740278147154e-01,4.241736006664442726e-03
-9.117412899198276133e-01,3.848367866845299190e-01,-7.072929497605517923e-02
3.901762604378913313e-01,2.505164275770024318e-01,-9.925385806903681551e-01
-3.863986754788295563e-02,-8.313577011722967924e-01,-8.062549994099030837e-01
-2.338338803263106946e-02,-9.396494437757776375e-01,-2.523986461591831709e-01
7.187730544517465514e-01,9.059460684239351025e-02,9.916277358132690178e-01
7.970217694555370436e-02,1.491471437510623055e-01,1.966718678501377937e-02
-5.690144242899384253e-01,1.715110514888031901e-01,5.582898746887565711e-01
-6.994089883068026481e-01,-7.856997073772651330e-01,-1.053284401268224091e-01
9.455422070666281709e-01,6.319032696723738685e-01,6.162944428736703006e-01
2.378936733470204956e-02,5.090088598093884809e-01,-3.688360941672994553e-01
5.113977116305989945e-01,9.136002881765288297e-01,6.052103807809390279e-01
-3.215938061132117554e-01,3.705582846070321068e-01,8.575856956472556192e-01
7.466634729459076247e-02,3.196448127957141061e-02,7.505760164343062701e-01
-1.680581386295232349e-01,3.763201491898460205e-02,1.347408565616237119e-01
5.063121276153210726e-01,-6.193916815767686046e-01,-2.413891139883932446e-01
-5.539676171971292806e-01,-9.588091836497785181e-01,-8.072366231927659008e-01
-3.547566225063034651e-01,-5.905789016123650370e-01,-6.593125594027247072e-01
-7.545287182277591320e-01,2.729488882026918084e-01,5.149705604575336437e-01
3.311964799240112445e-01,-5.870378837001160033e-01,-2.486766433409459687e-02
7.848714947083927918e-01,4.223019430769614502e-02,4.466987261663275532e-01
-8.527536973588378810e-01,-1.745485478177801753e-01,-4.537756318898309438e-01
4.939276017192828494e-01,-3.876946384993558148e-01,-1.288492093523747606e-01
1.975944671915774720e-02,-5.465749273879438874e-03,8.577073155377790137e-02
5.452040399177697783e-01,9.261825852296530215e-01,3.391516483467686971e-01
-4.058546521468655577e-01,-7.215816126494274396e-01,-6.130828690914791324e-02
-7.138409713095517084e-01,5.371342343264329244e-01,-9.293016689307411760e-01
-6.242857622226349879e-01,-3.696174835107717271e-01,-6.078561499494208320e-01
4.621834716034427526e-01,-3.231048303927037679e-01,5.460157893214914182e-01
3.660754134952053374e-01,-7.809670120728542386e-01,9.630076250427672679e-01
-7.527038501400784565e-01,-8.197438519668041046e-01,7.528318245479246329e-01
4.642400234335741782e-01,-2.832718571320789192e-01,2.562877021392773180e-01
-8.121495067927626543e-01,4.418231254882962755e-01,4.735878369371182561e-01
8.040164003927290359e-01,8.002195946317764985e-01,5.079043309577224719e-02
5.564039520135457551e-01,-3.196207304033693575e-03,2.112144142048455464e-01
4.433212327169193667e-01,8.056870549458234887e-01,6.477525102420178538e-01
-2.537196227303757379e-01,3.653723757496663005e-02,-6.772118685951933337e-01
8.452635668774883815e-01,3.507548864988700998e-01,8.593892710112098765e-01
-7.209775538352163338e-01,-9.400717771824154134e-01,5.426206717244914657e-01
-3.811684432044233350e-01,5.131177501412926834e-01,-8.475242851127313681e-01
-7.288707902999405075e-01,-3.900204165703116121e-01,7.951305540500677171e-01
8.730855944055724294e-01,5.645005230746560354e-01,-5.192966251415866985e-01
9.789264626726357221e-02,8.884316002649632615e-01,7.310107213327254883e-01
-9.761995497606748007e-01,-8.226607432327706082e-01,4.332437501359913679e-01
-2.186678084525239818e-02,5.539405064828961667e-01,7.564320542874480857e-02
6.051370394078214865e-02,-1.659915434388403721e-01,6.744497746380271330e-01
-6.713738406578584339e-02,-8.995023523282985600e-02,8.259065998212464788e-01
-2.100765117839427099e-01,-1.538026502134273166e-01,8.678596989748412760e-01
1.913704464610164191e-01,6.106569082827408845e-01,8.848630922117775022e-01
9.478300323890120893e-01,5.862219803355965819e-01,1.475183506778965370e-01
7.036585662835548316e-01,5.575923506941982133e-02,-5.312940247147734940e-01
-6.584940040287403651e-01,-1.389840213502857580e-01,9.199296701189438874e-01
-6.600766652417064950e-01,2.118404653689913708e-01,1.282361414287400692e-01
-4.888381929419798322e-01,5.776170184750517578e-03,6.566381637229667945e-03
7.649381492588007703e-01,-2.681065358487688677e-02,8.605737440036898001e-01
-6.081872066283746658e-01,-3.405471233306736067e-01,1.929187248752119999e-01
3.894590839656508763e-02,-9.492171312735921962e-01,-2.405502549489511033e-01
3.446833306354399884e-01,-9.632899398273562230e-01,2.836035607164673067e-01
5.081472128430482016e-01,-7.857420553468974500e-01,4.368387084102691720e-01
7.005438161051320556e-01,5.013391793480925784e-01,8.141503451364091593e-01
-8.522264116753293095e-01,5.594445888503689623e-01,4.659928659563070674e-01
1.729601682143264707e-01,8.831395635360115293e-01,4.646840299333716562e-01
7.036411633188031090e-01,5.927242174020408427e-01,7.183208464705608254e-01
1.694522621009486585e-01,-7.633287444509824216e-01,7.793273232583177723e-01
7.390192564760349470e-01,1.725064259747031148e-01,8.551804591225313779e-01
-3.086983567213332780e-01,2.708310197018042320e-01,-4.395397332792749800e-02
-6.154560866634017913e-02,-6.529329248066959579e-01,-8.698544670495849118e-01
8.076702985948054359e-01,5.511259954129938965e-01,-6.715016473230368543e-01
-6.768740278708618163e-02,-2.178709966890617356e-01,-1.846122597499098017e-01
-8.036141264003147100e-01,5.575998209060959443e-01,-6.657337606983861900e-01
-4.741644604157200238e-01,9.737332806245846406e-01,1.398091212435905728e-01
4.133823172192871986e-01,2.465661549997282265e-01,6.675715645783779628e-01
-7.054861296170533702e-01,8.342750507444949282e-01,-6.042056295642199704e-01
-2.897521174947121914e-01,9.287773334939453118e-01,3.912731231242587704e-01
-7.611433781787635411e-02,3.002533879692694807e-01,-2.683014578915134951e-01
-1.371554180463743222e-01,5.515530824466154947e-01,-9.065758646298336387e-01
6.112618827092797247e-01,-2.015006316731726699e-01,-9.013471452168564380e-01
6.769414129933679636e-01,-7.641985161612769861e-01,-4.280457619341841990e-01
6.643925885974482082e-01,1.410944557802660260e-01,-4.546304582092182134e-01
-9.429885548697720665e-01,8.554825661837164308e-01,2.901835320311203503e-01
-3.291848071176186608e-01,-8.330243417640628145e-01,6.819770242078579958e-01
-1.056660327078742245e-01,8.502393003910193592e-01,-7.461020031160539023e-01
-9.135992714960026184e-01,1.129180743805309195e-01,-9.139672446681492701e-01
-7.935377535972765184e-01,-6.708488652699142740e-01,5.667565163856036481e-01
-7.925255639117054773e-01,-4.731338687911286200e-01,-9.409917848588440492e-01
-3.075265643033557872e-01,-1.887402113913316803e-02,1.876167073572003741e-01
3.646749987294062301e-01,-5.435538976143157175e-01,-7.669488200350498275e-01
8.080111068311488509e-01,-5.776837527238172232e-01,-6.229574243215523222e-01
-2.725195718035906545e-01,-5.752045928079010384e-01,5.511069534023869121e-01
5.928027392207693147e-01,4.664395573074275880e-01,8.713530228594934535e-01
-1.657404002837863377e-01,-5.335399373910096887e-01,2.697743136115546836e-01
1.644691705455678665e-01,6.763747644566302508e-01,3.904401696142640876e-01
-7.835898181902001269e-03,-6.981074729198561979e-01,-1.816552697084481416e-01
-1.834051431925494136e-01,-5.718100789134428208e-01,5.586143766380002873e-01
-4.284145132341616868e-01,-6.285943024058213702e-01,-2.790117893403838423e-01
8.878636591914181864e-01,9.685443519566416803e-02,7.288036055177211647e-01
5.906793858225918292e-01,-6.986316243462247222e-01,-5.050015138615207011e-01
-3.467084013857713032e-02,8.900333708933318988e-01,-2.157548508164637280e-01
9.218864945446725301e-02,2.339074310006956647e-01,8.949399986034973775e-01
-4.550351252326834128e-02,-6.957964268916170258e-01,-6.006890580500323651e-01
-1.000243065688988242e-01,7.663643160540516419e-01,-7.653780247800059389e-01
-5.594102429680107846e-01,6.449309866626806720e-01,-9.004201922977399519e-01
-5.828074283733781780e-01,-1.785301985628799937e-01,4.621671099335298294e-01
7.307219066309453837e-01,6.444916723466422859e-01,-2.354906786199921775e-01
5.698572885075721128e-01,7.523284359940747290e-01,-2.475976064999765303e-01
5.255723893979598049e-01,-5.547806334132314721e-01,-3.851830271444276477e-01
1.109646946220841368e-01,-3.219974595782657545e-01,-6.508192087950492866e-01
3.125786166417048317e-01,8.736850343990067991e-01,6.254679679303887241e-02
9.114819112411358670e-01,-7.589699891588079783e-01,2.079407789494931436e-01
-7.918423571414012763e-02,4.958726857726936110e-02,5.414450388325930952e-01
-6.979436241313003997e-01,-1.296773330615739184e-01,3.004568054736711513e-01
-8.958798188167702570e-01,-9.748906169895028562e-01,-4.532981562477833570e-02
6.708761668785616639e-01,-8.216390746733137629e-01,-2.805386849112276870e-01
-5.280686412810096098e-01,5.760810110818332941e-01,-4.819376964984991574e-01
-8.579602720855881159e-01,9.130336979327904334e-01,2.617805060834872410e-01
8.396999849991695353e-01,2.035071370192813589e-01,7.340271536781601824e-01
1.811178585646999739e-01,3.291775373164336216e-01,8.360139861241810966e-01
6.817222636557023208e-01,-6.938832713406339892e-02,5.057648812976232033e-01
-5.405745303784299516e-01,-7.257063674993222691e-01,1.788993604917161750e-01
-2.798962462223337777e-01,-7.175845505437714600e-01,3.921696615619016946e-01
-5.042699642013257488e-01,-9.503460330120072630e-01,-1.277587495605305712e-01
9.348985402001459555e-01,2.750365563768397692e-01,7.802827814136847895e-01
-6.720641053225016037e-01,-4.004509715116815194e-01,-6.653137333571592649e-01
2.597938758124849201e-01,-6.428046259670596729e-01,8.456296812007444430e-01
-9.370852788261867516e-01,-8.597303898430221913e-01,-9.450654235689803784e-04
4.228934015109775402e-01,9.662481047182127636e-01,-1.279156851527494254e-01
-7.885711490835973780e-01,8.422852481502904887e-01,-8.657259941220187827e-01
3.385518276557379913e-01,-4.760681241774384898e-01,6.244664849534213857e-01
-9.749400152832319311e-01,2.945715059935223312e-01,9.502848087996822457e-01
3.262930138930673074e-01,4.278037206876028620e-02,-5.453851237693023712e-01
-8.441855006036380615e-02,-1.251952762005159592e-02,5.759542210016832531e-01
-7.000244265233228624e-01,-1.974757049279460830e-01,-9.426661161504736874e-01
3.898346192764043927e-01,-7.562875142284701813e-01,2.732124787641505570e-01
-6.192356600594755012e-01,-4.879450518082739663e-01,-8.919245835864477723e-01
-3.082005175470299285e-01,-8.358948997570674333e-01,6.476037889496024658e-01
4.795824720743355751e-01,-8.632659509704327938e-01,1.230205014152043752e-01
4.494146122790352305e-01,-6.752891602742925325e-01,-8.815269273924792870e-01
8.902039706507702821e-01,3.953338715347112231e-01,-3.014147241358626772e-01
-4.697849679239718412e-01,-3.220468850162385710e-01,-1.124430112767205170e-01
9.594968163562844765e-01,4.478811038208161399e-01,7.129450030252360015e-02
-8.686795494279249130e-01,2.772692712955338035e-01,-7.043339061076414609e-02
-1.679681777032777656e-01,2.093689184297231609e-01,-9.099007734510167200e-01
4.451455232774963466e-01,-7.685407840571454319e-01,-9.464006593862512862e-01
9.403117779564424961e-01,5.781092396798250821e-01,5.952693342228845275e-01
6.130925360270726987e-01,-7.534688724095035539e-01,8.706463843406113678e-01
9.372023103483835271e-01,6.088007286861971679e-01,-8.399135203307168673e-01
5.907186435424107707e-01,4.100491781792836576e-01,5.222557871698927379e-01
-8.583894901474871109e-01,9.424223077404754179e-01,-6.209205751547453023e-01
-1.868984527293962028e-01,1.835097379719763389e-01,-6.101209570967329743e-01
6.515003200664943872e-01,7.470098575583736800e-01,-3.934434960206889542e-02
1.513949566225698540e-01,9.186485384678240163e-01,6.375040767000705877e-01
-5.470606795586625548e-01,-3.206595873280937425e-01,8.436540125879512519e-01
5.676055062580571686e-01,-9.339497230825961616e-01,7.450547805614546881e-01
-2.066699869498849207e-01,4.506711131328402509e-01,8.504178783439282352e-01
1.552585523481126994e-01,-9.424455586102409299e-01,6.293700266142177036e-01
9.486092838734385690e-01,-8.236869937679223153e-01,-4.866493977073393928e-01
-8.124890899799179778e-01,8.073509384676125222e-01,3.243988202421985712e-01
9.088887203630158229e-01,7.361112424545765975e-01,-8.940714813769050640e-01
-7.466558103346205844e-01,-4.255478486772739100e-01,-9.276776225303962065e-01
4.860363204661586334e-01,-2.951370414009200083e-01,-8.635649253621811017e-01
-8.831309185679443452e-01,-7.584940290282702335e-01,-9.581619135577259527e-01
1.368901931160795282e-01,-7.678511091203383820e-01,-8.787753251466963178e-01
3.802447171618776878e-01,-9.044904408186817957e-01,-5.005899979472556716e-01
8.041208838634370526e-01,-7.186909119379190081e-01,-4.026972307531040407e-01
9.898710035217821446e-01,1.990340765409028823e-01,-3.935989662230336972e-01
6.441112976638068144e-01,1.744695718402760054e-01,-9.279963831293189802e-01
6.787814239624141432e-01,9.040353255207522754e-01,-1.611706665264236449e-01
8.395595153264869825e-01,7.460059334739417292e-01,-2.241760670073247308e-01
-9.970164694087009227e-01,-6.678735540575451157e-01,-3.044786514265498401e-01
5.190952232780969844e-01,5.947515279526378595e-01,4.248704477876676933e-01
-3.839024227762464214e-01,9.400171649000979013e-01,4.382041151520850164e-01
1.598209879606748984e-01,-9.134724024729834468e-01,7.388948402307609076e-01
5.151284097869590628e-01,7.963016590449405463e-01,-9.517779976652671614e-01
-7.454530891517523461e-01,2.919529734154506784e-01,-9.315956595828269737e-01
-7.971672407013516981e-01,1.915384452290527229e-01,1.911770738220974764e-02
-9.153019568563396380e-01,7.327923796792501498e-01,-1.482153259136638201e-01
-4.781246687705753562e-01,-5.160097271265642327e-01,9.674116310816178732e-01
9.305711651385821792e-01,5.966280988206507097e-02,5.671930200258750165e-01
-2.720402953459153395e-01,-8.419699316926467780e-01,6.942513486322849925e-01
-2.623601104400179462e-01,-8.480137010285715427e-01,-4.945581928638909108e-01
-2.430061707808826021e-01,1.679547974470736449e-01,1.261192425761126223e-02
5.626748610053087241e-01,-4.104171648122192373e-01,-5.949964716187385871e-01
-1.405219598247580137e-01,-1.085439351015684561e-01,-9.552534560337573311e-01
-1.353460886150033016e-01,2.020474023562046639e-02,5.991337897062187778e-01
-1.350447587288816642e-02,4.498686858937324118e-01,-7.541281535957415905e-01
-4.515667590595873193e-02,-8.653434459039737181e-01,-6.629370527921980560e-01
2.491866296256772806e-02,9.055927363570595023e-01,4.701524810821176015e-01
8.012661172494028872e-01,2.105064312778934799e-01,7.504579011899235041e-01
7.393664289466199691e-01,-1.471612551588963314e-02,-3.982577106488935925e-01
6.509099437021945711e-01,4.067043759740791575e-01,-8.268565180270868176e-01
-8.408716257334862831e-01,-5.068340419837165101e-01,5.795230471963290775e-01
-2.597302256161999612e-01,3.690110787042346630e-01,-7.099594486573568286e-01
-9.822546099930258290e-01,4.120915944852436841e-01,4.756648201128188536e-01
-6.913966218813285547e-01,2.922009713765743033e-01,-5.379610911113159588e-01
8.218601395733127202e-01,7.032535020919665758e-01,-1.240592956148325321e-01
-8.900953973267906605e-01,9.521069501014112202e-01,-4.959623959268388838e-01
-5.812340348709816862e-01,-9.734276742152960793e-01,8.446381685934145622e-01
1.367989059111442973e-01,8.213320236623524728e-01,-9.005106057492515692e-01
-6.754326916911617129e-01,-7.456181252220486222e-01,-9.147357676548728556e-02
-6.400382244885556293e-01,-1.175924459790378407e-02,4.513812455817864944e-01
9.524077211608052984e-01,3.969851059921745140e-01,6.833123096889792691e-01
-7.488892090889425202e-01,-3.653578293711696734e-01,-4.497548878954529261e-01
-7.199275511081202339e-01,-3.199594158754746065e-01,7.240688202006033691e-01
6.997493396994758363e-01,4.474901049309316647e-01,-3.696645645768210642e-01
-4.047469878589435854e-01,1.835200647386066031e-01,1.672061897373038342e-01
-2.571230129244646001e-01,-3.621021993188855426e-01,-5.534071702220773048e-01
-8.659292876904967073e-01,-6.918997889588200945e-01,6.491059277685911066e-01
-7.206185814204715268e-01,9.900472222566305547e-01,-7.976566679719201414e-01
4.211205048903983172e-01,8.082538169361856983e-01,-6.646194675447085753e-01
8.438017698928970134e-01,6.591419247746321819e-01,8.240051765962057573e-01
1.697684494273188349e-01,-4.988005525691592279e-01,-8.573984087410368993e-02
9.268538397711394428e-01,-8.453301614296258037e-01,-7.504436805971341773e-01
2.978746593480394722e-01,-7.507892107196318943e-01,-8.924873816578260399e-01
-3.943458187043422658e-01,-1.790465449014533306e-01,7.655268852614367514e-01
8.900100160524244686e-01,8.921685241523760190e-01,6.288736579449236697e-01
-4.605846754064402138e-01,6.134450311699657377e-02,-2.849202908686445657e-01
-8.798249546598375659e-01,6.556399965904333715e-01,-6.917634376164971677e-02
7.422278342861943212e-01,-9.326127954470346815e-01,-6.980862297378929160e-01
3.795019348464228059e-01,9.314817067374199233e-01,-6.643135798031163386e-01
4.388440897797778462e-01,1.665139803713566735e-02,2.114817326781328610e-01
-3.169090379430872240e-02,7.743181076830980558e-01,-3.013325189279341121e-01
-2.133847756765350212e-02,4.479811663087645002e-01,-1.078255993708032712e-01
2.493113979912742195e-01,5.808183589158799620e-03,-5.702704206093640593e-01
7.971922143680765238e-02,-7.443865969785392611e-01,9.826335473367431295e-01
7.800462783639174891e-01,5.094122938205880580e-02,-7.638491083733811582e-01
3.804305124029756513e-01,-3.380680948983185719e-01,1.176841511110127136e-01
-7.013342185357296366e-02,8.255722856729261760e-01,4.048664729328934619e-01
-3.750823280271760041e-01,4.032365763350014287e-01,3.780939286274371813e-01
6.778897735882629672e-01,4.756130795433022307e-02,-7.117628673870399769e-01
3.741668266588726866e-02,2.389406209299058670e-01,1.486456964105018486e-01
-5.291524105513423226e-01,8.480838111388431244e-01,4.610306928273859572e-01
-3.318247862595340436e-01,4.208364388852872118e-01,8.964373627297301805e-01
-9.917536422869694945e-01,6.951736878018803800e-01,9.767228579056408400e-01
-8.002980365776037885e-01,-5.010756156581461784e-01,-7.099875430417474931e-01
-3.934393692248119301e-01,-8.276157062415205878e-01,-2.373266361163475224e-01
2.459572539653700485e-01,6.020733933693325213e-01,-7.817415758436543349e-01
-6.251276831610153017e-02,-3.932847743303669041e-01,5.507182471354234998e-01
5.731273878456939475e-01,-3.849355776490452907e-01,7.370865471746235187e-01
2.301074660501543079e-01,-4.278465328209981600e-01,6.372802815247198271e-01
7.179041051617862657e-02,6.803374276033864465e-01,6.903841312021468113e-01
-3.014394609538701975e-01,8.090851591475793914e-01,1.641977652849064828e-01
3.639717801030408761e-01,8.375786754678240520e-01,-3.812971914789462513e-01
-7.203354695039452249e-01,1.059855365781843251e-01,5.514331395309135520e-01
4.728066357406073283e-01,6.189792825026392276e-01,7.008508411916367642e-01
-2.209982190669663726e-01,6.024312421186677202e-01,5.633491925302469561e-01
9.086218324489829801e-01,-8.164432577759317411e-01,2.848112382197842685e-01
7.932524429392333598e-01,5.254974198648161288e-01,-7.720935135422535289e-01
9.741598889436842157e-01,5.702752930398871101e-01,3.370385124723718206e-02
9.549650137897169877e-01,1.362582644653331787e-01,5.649819527196782154e-01
3.184906110004463997e-01,4.024469663615797277e-01,7.037319574139631051e-01
-3.979444259748834423e-01,2.997671016660117260e-01,-4.663994854057305073e-01
-4.149671552078908476e-01,-7.389926144416725240e-01,4.079329292207984903e-01
-7.864132337188558530e-01,-8.198879456492307316e-01,6.665597877951392469e-01
7.208832759714702831e-01,2.284960782138769630e-01,-8.031608205982725401e-01
1.252675964436620326e-01,-4.434950213781763129e-01,3.812647641951323330e-01
8.690622079376231213e-02,-8.533366266960100699e-01,5.314856948420536575e-01
-4.217479894765541193e-01,8.277593745494029598e-01,-9.066061343586031551e-01
-8.298343426274552570e-01,-6.192549214769291765e-01,6.306935636989847715e-01
1.173566296558459232e-01,5.375388112541561458e-01,-7.007162310343042488e-01
-1.321939594134466933e-01,9.881571078001538666e-02,-7.844897167510960223e-01
-5.770237867224299322e-01,-9.655340178411424557e-01,-5.630355099977133460e-01
2.974551321868090792e-01,9.435134260647659588e-01,7.225447634582813361e-01
5.941294708633708677e-01,4.383008095999547660e-01,-3.855607985747910860e-01
7.456271932719069628e-01,8.029525744548475785e-01,1.423360734926357729e-01
1.264390732828304387e-01,2.669432573811991727e-01,-8.690549883889424621e-01
-5.577338846129107353e-01,-6.074581458199670436e-01,-8.526862277493103548e-01
-5.921662765065878187e-01,-8.618560650975339854e-01,-8.441092317966711889e-01
6.739941277067655889e-01,2.218908669491626018e-01,2.360100154186535182e-01
9.077559294671520007e-01,6.227323801624056188e-01,2.524211534948013202e-01
6.222652948143194696e-01,-5.254752137459066663e-01,7.029824925996395191e-01
5.928113695082481982e-01,-6.126708394999202945e-02,-3.679435638880388382e-01
-1.642816453941813304e-01,9.263616507083107798e-01,-7.402564254099750496e-01
-4.897901937008384277e-01,2.363582950493638979e-01,-3.001800447758862234e-01
5.257875431090694995e-01,9.214264255227511136e-02,3.897585640743903568e-01
-4.660352203398494542e-01,1.043629345983125845e-01,-4.109416796360632063e-01
5.148021321835642983e-01,5.668716242670757133e-02,9.555961762603213394e-01
1.138081779664936732e-01,-4.337739829840221439e-01,9.841488255628847437e-01
6.521148926592492678e-01,-5.581391632489263177e-01,1.642258806547602923e-02
-4.086931517528080704e-02,5.239944629417210287e-01,6.363883813630111241e-02
-2.041868160150361877e-01,3.859274825283869337e-01,4.454959648034741981e-01
-8.930019906636221805e-01,9.443464851780452030e-01,4.356303252803239712e-01
7.172101659029941345e-01,8.143018395310368529e-01,7.386087272996026964e-01
9.341843803037868099e-01,-2.149422466205774818e-01,9.276202267677071678e-01
-4.248070481577401747e-01,-3.262344081900030446e-01,-4.277798909813106398e-01
-7.509950376434380015e-01,5.605156607455805684e-01,-5.791615916010266485e-01
4.933307791604542025e-01,-6.601769013235754269e-01,8.450630964131626843e-01
4.251533915712519818e-01,6.438800232043866423e-01,1.592706753964707733e-01
6.147396057495371213e-01,-1.679584812003651617e-01,7.040335491683957780e-01
-8.391345169487707256e-01,1.224673798765685273e-01,5.670014470982818189e-01
-8.439265060325868983e-01,-2.047327647582102284e-01,7.271447727949680306e-01
-1.483934188557269884e-01,-8.596859180085365537e-01,-5.935580260236212879e-01
-1.072792308129930650e-01,-5.299098157329265035e-01,1.906093746669754729e-01
-4.210242496976757121e-01,2.277316675307416993e-02,5.722949122726348481e-01
-4.106210512829282511e-01,4.673855028354683139e-01,5.404191079009872389e-01
-2.339764020770944697e-01,6.893073371614377720e-03,-4.116054309021555113e-02
5.260759207684544414e-01,8.312809970309369412e-01,2.128886422334312911e-01
6.741233772432158045e-01,-5.824106999645193294e-01,3.950357357430112071e-01
-2.573282224526034501e-01,-8.994578725856847701e-01,-7.010867655966868117e-01
9.366455042115910956e-01,-4.953655080718331050e-01,6.303244780761378951e-01
9.284162432843747759e-01,9.459864248110818608e-01,5.305850572160486500e-02
-7.006667979271066216e-01,-8.236287216782736120e-01,7.418896196217927841e-01
5.188366584651571412e-01,1.739577691949176774e-01,7.202568042757324651e-01
-3.078243390219237430e-01,9.237668684129582974e-01,-5.706177902625564347e-01
-9.650712112590875691e-01,4.814417323410993266e-01,3.029412641784059446e-01
8.377034479906297904e-02,7.812135206045880409e-01,9.205166494630585561e-01
2.111646098496191559e-01,-1.992423669660661201e-01,2.964390297767234284e-01
3.538256381037578890e-01,-3.945871688848943126e-01,-1.517669713483660310e-02
4.309205787485252959e-01,-7.120067614874248108e-02,-2.781704016431427728e-01
1.861079958570197590e-01,9.876972702635857804e-01,9.721892299907763935e-02
-9.430277900797983115e-01,7.750434714545677561e-01,-7.457433509901056912e-01
2.193973743153745382e-01,8.900440280439847474e-01,-8.433004529947936145e-01
4.230501076092867407e-01,3.150961339994109434e-01,8.710418839929801038e-02
-1.929164899816289136e-01,6.682678672616306770e-01,-5.109253360500272123e-01
6.943427711540040015e-01,-1.248866790023408502e-01,-4.164726749408345086e-01
-1.360557535062971724e-01,-7.920562221752585064e-01,4.484637352565707946e-01
6.168281121744862983e-01,1.903446837411217896e-01,-4.616148404884201639e-02
-8.053841532092254063e-01,7.882244852642490418e-01,7.249129019744795510e-01
4.306772779424861142e-01,-2.718233192735504122e-01,-7.423198397794621428e-01
4.120108948204845856e-01,4.531181520381053485e-01,2.071409917476556561e-01
2.193997785081125418e-01,-9.631585335380397073e-01,-8.535994673641955632e-01
5.207849507778596898e-01,-4.940141679736158586e-01,6.832243795462891178e-01
-8.523457540877443783e-02,-7.338276486115531405e-01,-1.630875976814789574e-01
-5.998524763653791947e-01,3.219257273804121411e-03,4.877858639206240632e-01
-6.122779993082969607e-01,-7.560992904685970295e-02,-9.549371613095849476e-01
-9.772792089237696267e-01,-1.431114705305276402e-01,3.684691286979882019e-01
-4.396020443096209096e-01,6.893557353478105831e-01,-4.059533502891810031e-01
-5.303731266463105332e-01,1.865843222661482947e-01,1.057424595557401314e-01
5.355864001457022461e-02,4.557051323057108583e-01,-1.600095527694951336e-01
-5.395749761191748206e-02,-8.667886246419758134e-01,6.477830330521703317e-01
4.721309754639073653e-01,-9.126258976103978071e-01,-3.576409906803170724e-01
6.581462462882188280e-01,-7.517154981941283065e-01,7.624374354566754164e-02
5.763703463372449320e-01,3.190921098065735428e-02,6.240990523784266664e-01
2.125576808180280608e-01,-1.306650517673668688e-01,9.703439519385281820e-02
-4.666587118127656364e-01,-8.192326336034929657e-01,-5.114599942183404302e-01
-2.585316856691355358e-01,-8.386202155624009613e-01,-7.180031830879829435e-01
9.389617632492490706e-01,1.128027763260339711e-01,5.501002759357791483e-01
-3.558467120290209618e-01,-4.668195320452688257e-01,9.684123761351621784e-01
9.157379641918146351e-01,9.024579208667549146e-02,6.611338194625826503e-01
-8.675480683681504601e-01,-9.570514179868305771e-01,3.002252504993485616e-02
8.470227781568790970e-01,2.879460259310751002e-01,2.802706707008619791e-01
5.608002011155766020e-01,5.417889052830076047e-01,5.818957635861154998e-03
6.860858239620959420e-01,-2.968063532493698808e-01,-9.156772443664558114e-01
8.659668976311651889e-01,-4.700535393045284227e-01,2.051471909908793023e-01
-1.938328991110129795e-01,5.061133181162502659e-01,9.566052505867799205e-01
8.842981426174236770e-01,-7.429379650766210208e-01,3.946276601681490970e-01
2.760476530207609525e-01,6.962752252430253197e-01,3.973758919479775109e-01
-5.142909606189556282e-01,3.103643960831239390e-01,5.329755114718666142e-01
2.745919016175308869e-01,-7.565132759218362590e-01,2.559713653481279216e-01
-1.654055619244110265e-01,-9.582845140350342295e-01,8.980898998109154707e-01
-8.635349817006110484e-02,2.630421992857299163e-01,3.899832688150175475e-01
-2.445336304771617009e-02,-8.511800855320617032e-02,-1.924844429753009845e-01
-8.189182043735250272e-01,2.902150883779408552e-01,-6.918007836884076944e-02
-4.144956502948147214e-01,-2.376430394772706123e-01,2.037389286529229793e-01
-8.776111760480709290e-01,4.580100422872401822e-02,1.016853509903858921e-01
-3.444139192726101140e-01,7.452625785421371774e-01,7.012044140090110123e-01
3.862536652608086207e-01,9.438696363936103229e-01,7.948404240985624813e-01
7.434099616768390373e-01,-6.422750382082313969e-01,5.612896537532723329e-01
2.735395949512020586e-01,-2.914517376314988972e-01,-9.128170618642952316e-01
9.644237697101887274e-01,-2.239814166995524047e-01,-6.451162224393769407e-01
1.715754126808557434e-01,-7.733633412642884064e-01,2.728150358310375001e-01
5.646585707839448798e-01,4.640368317379639507e-02,-5.642962123768984206e-01
9.187099950684578520e-01,4.885905266397627678e-02,2.638782497722116371e-01
3.141652904958391890e-01,-1.331079978671978470e-01,9.829989123576399201e-02
9.332045859922035724e-01,-6.147566340607342195e-01,-6.639557834512890278e-01
1.760282335420670918e-01,-1.698958367689966664e-01,9.676685701710512344e-01
3.869183088477250454e-01,8.169881507512000152e-01,8.523319432170233245e-01
2.526732946368095423e-01,7.903428498109210665e-02,-5.474093149214338538e-01
-4.621824838310750749e-03,-5.162447272634007600e-01,9.358047042489763268e-01
5.489987183910634005e-01,9.274175324283131516e-01,6.240029000942253212e-01
-2.447613319124244402e-01,-4.172711055042517270e-01,-3.164142164605425744e-01
-4.891428047864496698e-01,5.951698435134737952e-01,-3.966572799728369514e-01
9.870401538821425014e-01,5.375656674287458969e-01,-4.158594774762991442e-02
-5.466556245916855961e-01,-2.365463640349503294e-01,5.238295695249450823e-02
1.858825393511054358e-01,-2.204179171119087233e-01,-1.015622313616564298e-01
-5.139132652178648453e-01,-9.710334056062408514e-01,-2.805912924381905871e-01
-3.239067617785020836e-01,4.322009012383301041e-01,6.975809959543495253e-01
7.692579722903558626e-02,-7.400300982566743180e-01,9.889840559376856799e-01
-1.260475941265204458e-01,-4.492363045436107427e-01,-2.748724135854110351e-01
7.119033384043971235e-01,-4.005847959537800484e-01,-2.015684700055535572e-01
-1.681795968796810925e-01,-3.393632594375297629e-01,-6.033656893019267997e-01
5.633260751015762846e-01,-1.947536273195282774e-02,1.390255400674571540e-01
1.235476258977274977e-01,9.098876677305889338e-01,-2.219375193181947203e-01
-1.537580001999381274e-01,3.846985103166176145e-01,-9.084071145877188336e-01
-6.465846987745651475e-01,-3.356274804961014713e-01,9.641215972765484477e-01
8.573626970924035362e-01,-8.951311789986473588e-01,-5.503926811837140942e-01
3.517317024423354255e-01,3.524322119687910426e-01,2.566608571232564806e-02
7.999876802486014515e-01,9.820433543938706933e-01,4.695018303085358724e-01
-7.942286811224987808e-01,5.192392672683068255e-01,6.947154347917725570e-01
4.047772214844402860e-01,8.916579603198644399e-01,-4.234417113212463057e-01
-8.270389293911351025e-02,9.060954941475451996e-01,-6.558544825585281846e-01
-4.729625123072667137e-01,3.765751996451045525e-01,-5.054415954312878601e-01
2.077248102980588929e-01,2.766981830858117331e-01,-3.222201299971625410e-01
5.595424054595532493e-01,-1.689178225626204455e-01,7.724290478343698307e-01
1.150303931015610459e-01,-5.430576968525311354e-01,-7.240731845514241094e-01
-6.620210508450898867e-01,6.920696368347500904e-01,-1.831966489351015692e-01
2.613656674359421395e-02,3.139972579046501622e-02,-2.744894441420908660e-01
-6.276771646337504507e-01,4.922577337290821031e-01,9.760037204920202214e-01
1.034386629141275105e-01,8.426958804006527970e-01,9.217037807715366959e-02
5.911693552756804859e-01,-6.688331786548995517e-02,-6.289887074391395938e-01
2.690092724993968787e-01,-3.074178168555394830e-01,6.828817729520486601e-02
4.073618377013183967e-01,4.566833181702882882e-01,-6.280049683285384710e-01
-3.205255898145327187e-01,3.431240162190341003e-02,-2.239655171071857076e-01
-1.263021044988110742e-01,8.159720726201964425e-01,-9.284598296945603124e-01
6.531969944055002752e-01,9.384814803923657855e-02,-3.656631142794735112e-01
-3.456505662598612361e-01,-5.369063553685897716e-01,2.995827651886193710e-01
-6.228929330233226036e-01,6.665536111231871175e-01,-8.182973424988895239e-01
5.819959988279916896e-01,7.311617538294761243e-01,5.906777711742550174e-02
7.331612827597879800e-01,-3.523199381067614322e-01,-9.476639796814945171e-02
3.368285495357097314e-01,-8.380027629425250701e-01,6.696008422544954541e-01
3.415595568894009837e-01,-3.557514664953074224e-01,2.754552774928205050e-01
-1.260989542414427955e-01,9.425515072386270177e-01,-3.408887408836740462e-01
4.699482573737343571e-01,-7.039973736458065012e-01,3.214611013370103354e-01
-2.493529821632911592e-01,8.909498564609104054e-01,-3.826018852641184242e-01
-3.203673002477689380e-01,8.282156583069819611e-01,4.506017483507274157e-01
8.456705695672495082e-02,-6.935931067190330701e-01,-9.209603895147053798e-01
-7.167537332007434259e-01,-8.845570998769238802e-01,6.660084962923273899e-01
-2.369822667193102195e-01,-1.752876510861018922e-01,-1.053783372466838841e-01
-9.146622672051911707e-01,4.976262185855802045e-01,8.697016941270754309e-01
-3.635608837237602753e-01,1.752199572463519761e-01,6.624484722124939218e-01
-7.312486348884050802e-01,-2.882843908770040819e-01,6.517500359698213952e-01
-4.931193548872592203e-01,-3.009894076981489697e-01,6.762079935239428963e-02
8.981419778877322013e-01,-5.727844306664136020e-01,4.868678888675042060e-01
-7.138580419979487779e-01,-4.424429949025836528e-01,8.364377551125379284e-01
-3.866334383366500926e-01,6.181564500167213705e-01,-5.517534165178217265e-02
8.165821749943211749e-01,2.979178412798821896e-03,-7.041816914155103468e-01
9.956239600466774142e-01,6.667984400072215490e-01,-5.112518205677392125e-01
-8.757277106582761483e-02,-6.437826622343860716e-01,4.275855489202464721e-01
9.841742472826890964e-01,-2.488339862464354901e-01,7.682801148307483174e-01
1.467580074497911724e-01,-3.257285227713255793e-01,-2.580382987892451130e-01
2.843955501778143713e-01,-1.021408553337210812e-02,1.417704294653074903e-01
-2.822129122834491355e-01,-4.218411249368236859e-02,1.481325724382114295e-01
7.483078934985749608e-01,9.636578718154640288e-01,7.863452837401361251e-01
7.947416921292438374e-01,9.139360344772482492e-01,6.783873955966777114e-01
5.244467031120634282e-01,4.256479372671804207e-01,-6.268421676142914567e-01
6.033210993446924686e-01,2.738599576840912153e-01,3.593971747624982171e-01
9.336726666820871490e-01,7.431666014028006639e-01,-9.945342270897696846e-01
8.595078292239306528e-01,-7.987739125659154560e-01,4.640201044289922194e-01
4.085301815026451955e-01,5.587218353688996331e-01,-6.453998948608041797e-01
4.955052715614560732e-02,-1.738069634641132843e-01,-3.323843514785798092e-01
-9.602267413001206453e-01,-3.763694478675410071e-01,5.962709607501603948e-02
-5.153723058250971878e-01,-9.972789561448363038e-01,-4.413038981581245412e-01
2.434515211977408278e-01,2.414084470786550529e-01,6.764128892241825231e-01
-7.079453214185504883e-01,-8.413326691691016546e-01,-1.854271436381871307e-01
4.158921079928066256e-01,-5.829578527159113843e-01,5.346821357763662519e-01
-4.204153187967138994e-01,-6.555856410978315729e-01,-1.605759784879929875e-01
-9.859983797751414869e-02,-2.743519522987236670e-01,7.582741731235165261e-02
-6.058000521192081766e-01,-4.142119674806756802e-01,-5.160178392997896157e-01
-9.240405524427135475e-01,8.663595893163205108e-01,-9.341360191537146918e-01
8.549924947430673772e-01,-7.422322062865576164e-01,-6.230858206308698133e-01
-9.256924583487504687e-01,-7.860636467997395016e-03,-7.703685191236977481e-01
6.888852381340258013e-01,2.687437957670124611e-01,1.145527286006733370e-01
6.996057709445642203e-01,8.350606923764032352e-01,-1.904444494651331699e-01
-4.693309424891802806e-01,1.760505913746923667e-02,5.360398078043842052e-01
7.783121175684426518e-01,-7.012527680900249027e-01,7.377283672357595190e-01
7.419129892169007423e-01,-8.731226630647275222e-01,-6.914641068469273844e-01
1.615803361745882238e-01,-9.004757257557456374e-01,-6.770544756026430910e-02
-1.854424025672027909e-01,3.919850437798364506e-01,-8.675817291665905984e-01
-9.413820256637808193e-01,3.213814854259209319e-01,-6.437475421354750260e-01
-3.169530511712022047e-01,-4.635453647662552967e-01,-4.519746662297041695e-04
-6.037500139533600318e-01,-3.328814069599310699e-01,-9.854366978723883008e-03
8.139813318019606392e-02,-9.117493277181130118e-01,-4.701120843093560264e-01
7.754178673298088853e-01,3.358409426666448816e-01,-9.980026481394321802e-01
-7.718866885735782279e-01,-7.435877580882375160e-01,-4.479819674657206097e-01
3.989010182403984750e-02,-4.474442774277509471e-01,-4.442793157764595158e-01
-2.593158903297470008e-01,-9.068916996793647822e-01,8.840315547534061125e-03
5.990479325927067222e-02,4.109935635062558212e-01,-5.350020879757553249e-01
-9.312398799073902111e-01,4.219117029977141886e-01,-1.414483318436769999e-01
-5.817478488111065271e-01,8.374677389264468808e-01,4.143020147967655387e-01
6.155267445696652739e-01,-5.994789249612910709e-01,3.885828000308939600e-01
-9.482618819883803507e-01,-1.955916445983776342e-01,-7.759581924248257767e-01
-4.234304846983090176e-01,-4.630205399576334813e-01,-3.951580789404769423e-01
-9.768495791701614639e-01,6.289946404863302476e-01,6.737132057322354761e-01
-5.434291601224119361e-01,-8.702858569369817943e-01,7.546218682950491807e-01
7.954443573183751504e-01,-9.264192756224758352e-01,-9.103646962916445151e-01
-7.703403159348456430e-01,9.201037185278111430e-01,-6.625261990733584128e-01
-3.682032906118888338e-01,9.745330910739915531e-01,-3.205017750638201601e-01
-8.297768036194610453e-01,-8.797570658486910666e-01,-4.148223444463001730e-01
-8.912221591562403678e-01,-2.256696534386897213e-01,-3.967200102241237314e-01
-9.373571384059624645e-01,8.053854590865596741e-01,6.457478714347741899e-01
1.024691976075797761e-01,-6.248789646859036484e-01,-1.274596981522813088e-02
6.432569676339532361e-01,4.526218791781340123e-01,-1.990334477148381076e-02
-1.344888545844580285e-01,-6.144979351440571502e-01,-9.606233317508625635e-01
9.307728557557448656e-01,-9.626572066137255579e-01,-5.110850844666721127e-01
7.491272765006717904e-02,-4.390385256562037153e-01,-4.379937340665835954e-01
-8.479529070904487931e-01,-2.001446406911646658e-01,6.985852326180763683e-02
9.008218426015299762e-01,7.618043946071140216e-01,-2.613578872453576896e-01
4.779620402443949256e-01,5.594857655230711657e-01,-5.479434983760151923e-01
-7.062607124225499522e-01,-3.180589964965057082e-01,5.327919422612512612e-01
-6.185506784929220014e-01,-1.073135226534795983e-01,-9.475367502127274300e-02
7.650720807189950179e-01,-9.729453070080800181e-01,-5.791939324949095802e-01
6.790553896638478193e-01,5.552446483655186782e-01,-3.601510525902857918e-01
-7.493442447551537100e-01,4.155416765874186957e-01,-6.289351118004085084e-01
-5.236349479546642538e-01,-3.334732130029218755e-01,-1.208101569257802321e-01
-5.467297796910544072e-01,-9.208602144156434743e-01,-8.089736735799739620e-01
9.761481220885008803e-01,6.062294655549416156e-01,-8.792780056493492147e-01
4.399355015025978588e-01,-6.249159567573605578e-01,-8.169424798605633420e-01
-9.960127323033558522e-01,-1.601229097851273320e-01,6.156958974432442666e-01
1.461495130111334362e-01,-3.433710518737553841e-02,8.245679204535352191e-01
-3.734681345038113331e-01,-6.864756147397881314e-01,8.291144176002096522e-02
5.116998232063600938e-01,-3.170630771934528358e-01,7.080041882038856649e-02
7.960971072973110907e-01,-1.464709621011248686e-01,6.070011100854975084e-01
-1.350393295358345291e-01,9.681526409623690821e-01,-6.232682294746183516e-02
3.698373428761441151e-01,1.790010017410761378e-01,7.765804987013940064e-01
4.593457793220840912e-01,-6.304089299514494815e-01,-1.217911167540219886e-01
4.404602170795914873e-01,9.583377197062139530e-01,4.605824055322349508e-02
-2.272129109264571234e-01,-3.023520792719169847e-01,8.384616135936162618e-01
5.382446525872879306e-01,7.386629875525643207e-01,-5.696108306345881722e-02
3.184953532012824162e-01,3.258063702696101238e-02,5.551208593272212166e-01
-4.737631082479407674e-01,-3.158912666214215292e-01,-3.078923276888636540e-01
5.339495185315474846e-01,8.147971038674177713e-01,-5.963741722014919144e-01
1.617645282351769520e-01,-4.655104895048680635e-01,-4.643601944079061017e-01
-7.541402713867479957e-01,-2.446780868067288672e-01,-1.183691287610137977e-01
-2.128386891551825588e-01,-1.970089577656151114e-01,-3.394453260306717901e-01
1.357331525964975416e-01,-8.445668250422346812e-01,-8.048611098981734990e-01
5.989635680915519345e-01,-3.365845751816209930e-01,-6.439570389997764099e-01
-8.490578170717919537e-01,2.349902680629878393e-01,-9.313964808983115073e-01
-6.577039311927890264e-01,2.451043643009702677e-01,-5.520798965451989559e-02
-2.942747502466567244e-01,7.592531390983605633e-01,-9.402971735007326082e-01
-2.169999382409635302e-01,-2.998768497814463529e-02,9.923059014853397031e-02
-3.127937147095465331e-01,1.956073289991790976e-01,-3.037437949772781032e-02
-9.380114876895384590e-01,-7.791192159153523811e-01,3.454783675105326246e-01
7.222322665114488949e-01,-2.274912043579702114e-02,-9.243648911614510411e-02
-3.859868091839693260e-01,5.086309717556156684e-01,5.984030697392326292e-01
-1.688571925385398131e-01,6.860004100929455451e-01,-6.518534986468815795e-01
-9.996806419194630422e-01,-7.651746635731624391e-01,6.575412028450777768e-01
-6.970895662710339113e-01,-5.521729815007658804e-01,2.468966208075231705e-01
6.392624584176032076e-01,-8.931916207241588079e-01,2.052593666895450308e-01
-2.406329365387767094e-01,-3.398969051166902400e-01,2.729345525103286096e-01
3.028790021642522312e-01,9.526097727154703154e-01,5.346049308264375632e-01
5.952257208138824751e-01,7.883790776042762793e-01,6.116115583031302982e-01
-1.765728907048245144e-01,1.741257516007086448e-01,-2.596929320358554172e-01
-7.612851272333618358e-01,6.650376960808417337e-01,4.166327461476537763e-01
7.851249223548673051e-01,5.773517833620833706e-02,-1.111202716931252166e-01
-5.281515480653595773e-01,2.617322923642146915e-01,-9.701395157483982956e-01
-3.029045152287923592e-02,-9.551871658027688561e-02,6.630215207673224587e-01
-5.883313932389502288e-01,7.840581109902242662e-01,-5.373437377983087959e-01
8.835595601086321249e-01,8.643038114531331750e-01,-7.742698071572897689e-01
-3.890610769329558849e-01,-6.816601589926656324e-01,-4.348804974677202839e-01
-6.897822287614783221e-01,1.622291122762522519e-01,4.303178283407538274e-01
2.025419990447214769e-01,-3.375599833929912030e-01,-3.015825039102875138e-01
4.586191965655606051e-01,-8.494142981455095054e-01,8.956247248505557756e-01
-2.392879390578115384e-01,-9.329181629304383883e-02,8.414530529494368416e-02
-9.093626986834544290e-01,4.921097973811376924e-01,-4.933111990732688135e-01
4.576469160862519647e-01,-2.458703129262862497e-02,2.328378001054738355e-01
-9.006771254922603109e-01,-6.633821034493923019e-01,-6.152275743971125088e-01
-5.785810701463804939e-01,-8.155242470147732181e-01,2.672402100988424678e-01
1.513527610027136650e-01,7.956602993983628025e-01,4.930407236260492265e-01
-8.224937893761057328e-01,6.118928518252098048e-01,-2.382444872879294628e-01
-7.733985023450884455e-02,3.721621009059665752e-01,-3.252996204516394041e-01
-6.646711213940081908e-01,8.749317161668332954e-01,-3.472156551306553318e-01
7.313887667469047837e-01,5.256692594478169500e-01,3.368778951010207301e-01
-1.206059902344260859e-01,-9.180424010380763278e-01,2.926897511750556902e-01
4.297391406729587082e-01,-8.191588382082675146e-01,-6.341601070404507823e-01
-7.158306448965368052e-01,-2.596169715975265024e-01,2.738852290703597259e-01
8.306915871363476089e-01,-4.270834022863878587e-01,9.652560921409931716e-01
9.718064849025287444e-02,8.400125905898654377e-01,-8.152251165069779315e-01
3.568689053179396886e-02,-2.664066277568377661e-01,2.670436962475770670e-01
3.812110832033981378e-01,-8.438741357444483615e-01,3.469839411362634074e-01
-7.957587888993711278e-01,-3.282798308873475790e-01,2.572176872849369911e-01
-5.484038191610551838e-01,-8.933925919835483676e-01,-4.428561036358331648e-01
-4.683809457961762845e-03,-2.921016357099825989e-01,7.144288070213677955e-01
9.238797733730579331e-01,-5.007297522999132333e-01,3.694161753252309666e-01
1.737782980064010996e-01,2.579047770024296415e-01,2.447943093647209079e-01
8.014527271268212516e-01,-8.513135815956220931e-01,-9.325099076341651916e-01
7.179806992410271427e-01,-6.450260859090568566e-01,3.415377636939198602e-02
-2.791610879240291609e-02,-2.887716112307876504e-01,6.928290159369039358e-01
8.461756646156470829e-02,4.592319694979669631e-01,2.702214402033069618e-01
2.704132374998058364e-01,-9.699950647364083967e-01,1.970980313286034846e-01
9.315411601778333939e-02,-6.875991624667128210e-01,9.666103227149351884e-01
1.104798022212074571e-01,9.326098422149589062e-01,-4.159931161484395901e-01
-2.613726193834178257e-01,-2.486395937450458504e-01,-3.118829361055244220e-01
5.291092044218950186e-01,-7.453567134120286930e-01,-8.738120734770298270e-01
-4.960882255631766657e-01,1.001024368582277280e-01,-7.865889041134619397e-01
-6.015539423108751116e-02,-9.367128485410987082e-01,-4.310201447934616237e-01
-5.773200634696276090e-01,-2.546862945046441951e-01,-3.851577720513368330e-01
-6.152632052536795015e-01,5.479107414925892261e-01,-4.940639268507414084e-01
3.395513058088746039e-01,2.627857223914422669e-01,1.983138028418107712e-01
-1.908043221451345417e-01,-4.856255904195247997e-01,8.793173053621960999e-01
6.778614793486785750e-01,2.902883473048698537e-01,7.485529338986198766e-01
2.041358328809648182e-01,8.693035332778256130e-01,2.650077695945864953e-01
1.157359675280593692e-01,-9.164799287011835549e-01,8.650780514636760010e-01
-3.868525480287106078e-01,5.319880196631201486e-01,-2.393715426996603224e-01
4.208842867461988213e-01,-9.358603034377854790e-02,7.034736552725484593e-01
9.689587469760421179e-01,-2.155149647219867237e-01,8.625249798925440636e-01
-2.825036738721355967e-01,-8.207996178663767850e-02,-4.026267721305463176e-01
2.974408012874174556e-01,-8.375506073463900858e-01,6.994103665054023367e-01
-6.670189064638276655e-01,1.784496512814561786e-01,1.454371336112689761e-01
-4.289242087144833349e-01,-7.486892566396141646e-01,3.514271622710685161e-01
-9.427733275009675395e-03,-1.238113052950340354e-01,7.016056617445858290e-01
-1.947579961113428126e-01,-7.159593560398096468e-01,-5.480233483163161612e-01
-4.925648062228886737e-01,-9.801682469420540667e-01,-2.589809805945211263e-01
5.739030656711308076e-01,4.369715454141436251e-01,1.405999984589483276e-01
-6.227900335774523288e-01,4.152899586322462699e-01,7.474260657979954203e-01
9.602034500070066869e-01,-6.320624271518566761e-01,1.406712495138806585e-01
-5.764877924538769349e-02,5.771557661218396085e-01,-4.087283483098052006e-01
5.060240335145804735e-02,7.735141205665205799e-01,-2.528276446479098549e-01
-8.210711324603967576e-01,-6.952374826732912183e-01,-1.937940104227597882e-01
4.178823719168889284e-02,-2.883236071313421967e-02,-4.676512608881535638e-01
6.884209564854841812e-01,-1.667513520368564262e-01,4.739070173267394548e-01
9.785383184500535680e-01,-1.028646867730964587e-03,-5.979267786084685454e-02
-4.443237263711175000e-01,-6.708570476932891324e-01,6.881609098949250658e-01
4.294071077469718833e-01,-7.740379873761022989e-01,-5.274632792004019244e-01
-8.883503323710466582e-01,1.485297790445261334e-02,3.960661620440022457e-01
-8.235953264063384793e-01,-8.958349619273415776e-01,-4.659627765996805504e-01
5.002296681979228055e-01,1.259097696177293724e-01,-5.510806979965321428e-01
5.822367969967867651e-02,-5.638076697535543413e-01,-2.507462301092484580e-01
-8.007227867746831151e-01,-5.498432259910324138e-01,1.547851223584810754e-01
6.956593610086998503e-01,4.502488475962111991e-01,9.153810087880276392e-01
5.841867145169101772e-01,-2.848993160127550883e-01,-4.136925790237369061e-01
-4.251604607760204324e-01,6.719919006647918636e-01,-5.810641418717359397e-01
3.713915512560301835e-01,4.306018877829880243e-01,-3.499988430935654371e-01
-3.004948064366870231e-01,7.392206790830591068e-02,3.584403018162314325e-01
-4.987380526702334116e-01,8.969085664980869232e-01,4.857791387814733852e-01
5.439784945169898744e-01,-4.822432116453778672e-01,5.601259225384016549e-01
2.458452412769200901e-01,-8.304840324817892583e-01,6.822732767995520753e-01
5.836162567309994831e-01,7.420413749395291525e-01,3.527227627862328241e-01
7.598675123984297564e-01,-6.823117773098852368e-02,3.259707527401545235e-02
1.827024836962420906e-01,8.028128460529271315e-01,6.510101967190340400e-01
1.347212050789623472e-01,-7.317167540347990773e-01,7.266681841155580024e-01
4.377596611019218820e-02,6.004564156995197965e-01,8.713671411224446217e-01
-2.926814158588117998e-01,-8.100582859386422641e-01,1.928549235502623471e-01
5.866762620138072926e-01,1.476881512432524080e-01,9.629146187482764407e-01
2.778618268988553019e-02,7.968911449222892962e-01,-4.645351208295842582e-01
-9.297018802904770673e-01,9.345920557366302894e-01,-2.461739067467783038e-02
9.250705743627207767e-02,-9.488179353751007294e-01,1.611240535217162151e-01
7.160590648502414002e-01,6.773941465104027504e-01,-6.496583178298231953e-01
-9.909619051795182099e-01,2.155928821411399188e-01,2.070946632563441803e-01
6.152882677440607573e-02,-9.475685189575444589e-01,9.175574009998310743e-02
-5.669923590793362056e-01,-3.249437268817627622e-01,5.295887520578521634e-01
8.260148760942276347e-01,-5.732813647776739963e-01,-1.607529207540747684e-01
-2.408497416079422582e-01,-6.582801907182509460e-01,-2.097040818806317208e-01
-3.168792255656025514e-01,-6.636690250543939573e-01,-2.575785933677599004e-02
8.675590582804002526e-01,4.436708888610740864e-01,6.934955568822116501e-01
-5.027743548394645323e-01,2.970401190454532436e-01,3.336679508226254587e-01
-8.660729042424093471e-01,-2.918334796518093910e-01,9.245404395785272733e-02
1.235604627118691567e-03,-6.171275485281464412e-01,-5.786066848221507186e-01
7.641132905046654766e-01,-7.205437909845100464e-01,8.892873767614715153e-01
-3.366751109458152591e-01,5.330927174507389399e-01,7.760483202687240567e-01
5.852729380320587094e-01,1.525932008511772242e-01,-8.063341322036856607e-01
-5.901203057722228529e-01,-7.952761677420865372e-01,-9.251425681887561758e-01
1.271209800334749396e-02,5.863533388111645817e-01,-7.189493974292446854e-01
5.991381115524996304e-01,-8.599229360145215217e-01,9.897725066210005807e-01
-9.047084816689789921e-01,2.510599242672615361e-01,-9.692768031883947089e-01
-9.711010836327795825e-01,1.709846029023671665e-01,-5.964353672707176646e-01
-7.623394527983442526e-01,-8.046473628076313833e-01,-7.777589400151541099e-02
8.341757977531754076e-01,-4.833668421322567799e-01,-4.858195712275885647e-01
-6.286487512530727351e-01,3.868114351080553792e-01,-9.206947711730919526e-01
-1.695871973954508061e-01,1.450086363209952545e-01,-3.905871192802734537e-01
9.625517596453703195e-01,8.689387965299770755e-01,1.010031330457235033e-01
-5.187065708863107805e-01,-1.582444694139042429e-01,-5.195627571530250233e-01
-7.729678830722730432e-01,-9.582959686594727522e-02,9.696157609426172552e-01
-3.253481479048945246e-01,-9.752498310905146628e-01,9.523108855876594170e-02
4.416126613934969747e-01,-3.336215389478531801e-01,6.836947865736013874e-01
-4.129100513754928592e-01,-1.612561495759785579e-01,-3.330656278766466194e-01
7.842095411392331350e-01,-1.521149018927665519e-01,-8.674418073788927597e-01
6.465669629190673451e-01,-4.851916385734680315e-01,-7.277974199890679952e-01
-2.830911755215719250e-01,-2.525884832872278274e-01,2.133946679688312198e-01
-9.508030705165413377e-01,8.643802351082485735e-01,3.026841974713945227e-01
-7.663011239443524580e-01,-2.795442079754173470e-02,-4.483252334625165147e-01
-6.964388487450678955e-01,-8.247566147420397620e-01,2.340915298164516489e-01
2.021548643948867241e-01,-6.838569893579509174e-01,-7.446580941924139108e-01
9.303228186403724731e-01,6.174685540761779556e-01,6.572535444141458516e-01
2.347830063091707054e-01,-2.086544233595746256e-01,5.226535139366974558e-01
9.547432796397692378e-01,4.591992006694507467e-01,-1.719579587169641766e-01
-3.500056450227901905e-01,6.335188752051148509e-01,-1.375014289930684974e-01
4.663400498185164000e-01,-5.328225332648077739e-01,8.595055331439505064e-01
-2.636744638167329846e-01,3.805943766046797627e-01,-2.434402682946323893e-02
-5.100754524511685872e-01,5.482613881738875872e-01,3.029203123395809438e-01
-6.969778731212141754e-01,-6.230808021911471428e-02,-7.648728305529008953e-01
2.286924138811909923e-01,-9.102436898626522499e-01,-3.180811575557178639e-01
9.741329000809932914e-01,-3.613436127110505325e-01,8.866483716138597870e-01
8.968055594731865199e-01,3.827986178097979586e-01,6.913832741636429802e-01
-5.936722451290543656e-01,4.146986507872012506e-01,-5.422088581452433331e-03
-1.322730788096022625e-01,2.247279058493911741e-01,2.046267858131896045e-01
5.188086116702059769e-01,5.403424035614559084e-01,2.177087958897485631e-01
7.985593201036260691e-01,5.124813380039752175e-01,1.759852942023232281e-01
2.341902351405282801e-01,-5.870351365154693468e-01,1.385812899122802477e-01
6.023287424658951839e-01,7.096720568737735491e-02,-7.267815654758615906e-01
-4.745202656952571818e-01,-6.609254442611289804e-03,1.019111481950367715e-01
3.149748610848503994e-01,1.036663405764648438e-01,-7.104305047245620397e-01
-3.274343773751078324e-01,2.236639396520061496e-01,4.421034691752023793e-01
7.584256681475569639e-01,-1.307883802098159798e-01,-9.972604475363899823e-02
-6.824241727242006395e-01,6.899096578992787165e-01,6.266061206368513936e-01
1.264262507215749842e-01,-8.456810101153500181e-01,-3.866666792341038050e-01
9.853612395308590788e-01,1.324054218346861767e-01,-8.726329861899446705e-01
-7.318598487067384806e-01,-7.366142550056187233e-03,-5.533880736373173459e-01
5.962993681678463442e-01,-3.536571012577616191e-01,-3.687269821253669200e-02
9.651615058842979433e-01,-4.200095523550759768e-01,5.063236760753466736e-01
1.029913162531175264e-01,-3.039470970452320397e-01,-7.996839777582032127e-01
-3.044875932327546497e-01,-7.267113679017571659e-01,-4.710458479791737041e-01
-1.056347463451832169e-01,-2.825640726902884925e-01,-4.219015351246282464e-01
8.021042428974329841e-01,-9.285650452553135814e-01,9.052890418622834279e-01
6.463548894319881555e-04,3.460533587491765317e-02,-2.908785699243361389e-01
2.537740687806691042e-01,-3.954771744134892852e-01,9.909959508912162818e-01
1.668297124128967912e-01,-6.643714251879495603e-01,-3.906627408196789997e-01
2.813625521977498600e-01,-8.788930173611657626e-01,7.598745505470063666e-01
1.956668176343352439e-01,-4.966857302142126951e-01,-2.693736147065821651e-01
6.112910841885224045e-01,-5.254892701446061132e-01,5.598196626903018114e-01
1.586843580168737500e-01,-7.872880702940150410e-01,3.845742620885694851e-01
9.685958173838327134e-02,-7.250113141102312309e-01,2.101862021996891983e-02
9.646600780765692829e-01,3.404381923157735468e-01,-4.017754906916020108e-01
-1.606853576909506032e-01,7.340893566726585107e-01,1.481042211970562406e-01
-8.900673186698910833e-01,6.707143787240117394e-01,-6.254975130786830650e-01
-8.868582725388951538e-02,5.284173360346007264e-01,8.482636981889402072e-02
4.243870080007612344e-01,8.554624346055004214e-01,9.920678979487416171e-01
9.569240400668599378e-02,3.900316080396759588e-01,-7.195242384343747410e-02
2.123916245581509710e-01,-9.143263926624016769e-01,1.925245444179115584e-01
-9.120276394268667097e-01,7.988480781506981376e-01,2.666178346386252063e-01
-8.938656853731379304e-01,-5.979841504448084599e-01,6.741852207523451046e-01
2.424771076170002537e-01,-8.536931668614842206e-01,7.198812531086398181e-01
4.482185835479968183e-02,-1.432775166406794476e-01,-8.176682536901362930e-01
-3.252327820816105497e-01,4.539810978603344704e-01,7.721298047441267354e-01
-4.651175772997580005e-01,8.398711046255429302e-01,-3.643299069347676333e-01
6.975037032322133346e-01,-9.047467114944272026e-01,7.306348967364171276e-01
-9.469545153207328259e-01,-1.742080380791897198e-01,9.079879027119486246e-02
7.420958524112752919e-01,3.610088050951596461e-01,6.767636285776925664e-01
-1.725333026214226351e-02,1.221283902445922109e-01,-5.721975951569324703e-01
4.621200535111666952e-01,-5.574146307321288241e-01,6.186999901957825898e-01
2.608698853943562934e-01,-5.265935418750566921e-01,-7.162326607745017615e-01
8.547309690641884394e-01,1.842625162025139929e-01,-1.962396362518465942e-01
-6.176902177531200522e-01,9.831571588229344183e-01,6.608037628104281858e-01
1.259916801015072974e-01,-3.866914096145701585e-02,4.903022440288271611e-01
5.413123383769362640e-01,2.145918334716732101e-01,-7.887809431405350402e-01
2.562557369994014067e-01,-6.373461215030369331e-01,-9.990995732978411592e-01
-7.999716526537392625e-02,-5.501114512666525069e-01,1.556152723603683175e-01
-5.457409980784710957e-01,-6.298838573779086403e-02,9.667454089675884266e-01
8.531101866542882828e-01,7.961946394847678743e-01,-9.982013869721184651e-01
5.148641155813109549e-01,3.292512418146720243e-02,6.649822677506045387e-02
8.817227060234023028e-03,-1.057885184307854054e-01,6.048812544189923202e-01
-2.453905219103713620e-03,7.887235540929382616e-02,9.193120204910321114e-01
-3.568019219238423023e-01,-9.059632153630667872e-01,9.243562510168159552e-01
1.768387876411223747e-01,2.248353152604654071e-02,-8.970051202973421400e-01
6.074717023542224315e-01,8.830440397454768497e-01,9.587985801203924296e-02
7.417390311211919940e-01,-9.797760563568929104e-01,9.256432211298486479e-01
3.525815925048358945e-01,3.818311386218249392e-01,-2.363054190284603617e-01
4.812810533083557996e-01,-4.386244964213705799e-01,1.397790909278875393e-01
-7.751457340177814181e-02,-6.446334022436153166e-01,5.503958171196821070e-01
5.460301794672786091e-01,1.562570973817098974e-01,8.012477528045871544e-01
9.278648042167458865e-01,-6.920788585065484888e-02,-7.478029674835131591e-01
7.596879570902421719e-01,1.874057253740397666e-01,-3.659532689624300783e-01
-9.981854360998143605e-02,-3.067409494192057107e-01,-3.369589589730503931e-02
2.834585258126613994e-01,-2.051732376921611145e-01,-9.387084728205361550e-01
8.773275067458514709e-01,4.087756384319043423e-01,5.735584567864044914e-01
-5.065363226660830609e-01,-7.741581264402910278e-01,-5.910956933555842063e-01
-7.343613171140932483e-01,-2.875339730293582363e-01,-4.583970970828432634e-02
-5.723958645180708960e-01,9.840557612192581960e-01,3.623802703890739441e-01
1.463910458124697556e-01,4.199692635366258919e-01,6.849804458260315698e-01
7.063731566317519306e-01,7.077127572798236343e-01,9.899662777063911179e-02
-8.654115733614542449e-01,3.057480816684368108e-01,-3.549516122494451587e-01
3.968241190871273361e-01,1.272563424062123083e-01,-8.271103682719593841e-01
-5.987304947748655071e-01,6.546155808214448868e-01,-2.883494182758925550e-01
-5.421337145465687790e-01,-2.696871572063779254e-01,5.100278905809205732e-01
-8.936142241055842206e-01,2.610570797648243957e-01,1.374591502266246934e-01
2.571577032045806455e-01,2.825121148801799098e-01,5.208574546486384182e-01
3.454241287626467205e-01,5.156637743045189293e-01,4.318998668154772069e-01
8.164679524985194448e-01,-6.554232214642554677e-01,4.959714734074851528e-01
3.019869514367401475e-01,-9.890256579478373666e-01,-8.452849476204116197e-01
5.975734980109694838e-01,-1.937876057747056624e-01,-7.851162989833471162e-01
5.614815240061070689e-01,-6.517265712093003316e-01,-1.174195461232871995e-01
-7.716737576665544385e-01,9.101682864637030690e-01,4.093220337312746260e-01
7.122884313929735978e-01,1.828899882084433770e-02,-8.751644378971423777e-01
-1.599653402556120430e-01,1.189829983021644111e-01,-5.793230665574116145e-01
-4.437919665922029910e-01,-7.175022028630642090e-01,-7.761966880058668306e-01
-4.504542868561274283e-01,-5.561018554609169495e-01,5.008048490832948119e-01
-4.219116351037544010e-01,9.153179150143286869e-02,-7.793678128840877406e-01
1.822518494583469373e-01,4.969560411650373322e-01,-4.425524664445137368e-01
-7.399279263995055533e-01,-1.531953454589127794e-01,1.362428031874749479e-01
-5.658872596971329383e-01,-8.997117288198770435e-01,8.850328377476657238e-01
8.396112901901826575e-01,1.348213519870888888e-02,-3.154077177217462502e-01
-2.252483571773402637e-01,-1.295299971137278128e-01,6.392265926467561865e-01
2.622250364801659295e-02,2.173980042623748776e-01,4.660530644832581171e-01
-9.708557129745056802e-01,-5.342369595096916335e-01,9.836175818088761513e-01
-5.951472168273010954e-01,-6.598372219518355841e-01,-2.064529576724638549e-01
-6.810241478841430052e-01,-1.083754609744103092e-02,9.652384573036676407e-02
-6.037924636675604528e-01,6.380648079378010706e-01,2.698780368842208510e-01
9.590726919932390793e-02,-6.806589169599956968e-01,-2.056637743217581971e-02
-1.232328537539832958e-01,-6.454658292238391049e-02,-1.471425260613581365e-01
5.233491466627804289e-01,-8.953852773143489152e-01,7.575011928082764356e-02
-9.646237540301196844e-01,4.581640266217779089e-01,-8.907742577497999026e-01
-8.295722266273057866e-01,8.753890350742172810e-01,7.372360572253966460e-02
9.878646482903867820e-01,7.038993309352425953e-01,6.641402405982255175e-02
-3.618464279289117513e-01,3.271382603414756396e-01,4.034567795514141242e-01
-5.127457535571537939e-01,-9.640639173008023199e-01,-7.902021567182968553e-01
7.619860858657421243e-01,-4.193706818392448632e-01,9.021660249976364288e-01
-5.013517409197016939e-01,9.113154895747319628e-01,-1.527651041203954563e-01
8.498254246313912130e-01,-1.341208698384801501e-01,8.715642905386573602e-01
9.999283884858254368e-01,-4.427104014102625218e-01,8.139110328442484832e-01
-3.025684368030940874e-01,-3.018373946366352811e-01,5.614282232233576142e-01
4.235795897308660685e-01,-2.716355288594369810e-01,3.330886453599226638e-01
-1.923057385495501315e-01,-9.340051617821425456e-01,-5.105102712136733167e-01
6.325733710032970247e-01,-5.588699412833701974e-01,-8.985368021603479249e-02
5.008043417894920690e-01,-2.180140661373952682e-01,6.224557942084474327e-02
-5.167981410498689865e-01,-1.494501833047849892e-01,-3.077793332280420735e-01
-8.797023021109555696e-01,9.713293195056695861e-01,-1.085803633242135025e-01
8.834292773633789508e-03,-9.972577648788158999e-01,8.312994007990504031e-02
2.418847903282164147e-01,5.360353659550654015e-01,3.875637836201319963e-01
-7.643112818404320663e-01,9.305388621751731204e-01,8.230390815575150398e-02
1.251715006008249365e-01,-9.842802855285688324e-01,1.781237489153237874e-01
4.853319396273565456e-01,9.883176176306338601e-01,-4.190456368676429566e-01
2.745106288418959206e-01,9.855162597957740633e-01,2.984897093984306693e-02
-1.727941046730436803e-01,-9.696885400508730157e-01,-2.591153293003465308e-01
3.207541738682611054e-01,5.375128734355512083e-01,-7.995098562197244796e-01
4.985494879598180162e-01,2.537609843517580899e-01,3.405935516518499018e-01
-6.060727150595677237e-01,6.403972251118945636e-01,-4.978001843577288810e-01
-4.222183132986587761e-01,1.291801728816555084e-02,-8.145004452198012501e-02
-1.144805360278811079e-02,-6.921240915539184080e-01,-4.533227836211632944e-01
-4.343803557858305631e-02,-6.535932541771372062e-01,5.005285152626255396e-01
-3.399788636506129169e-01,5.452403162006842496e-01,2.866486771551934876e-01
-6.947337882881023940e-01,-1.835235547698772507e-01,-1.887342497929536123e-01
4.563836421365692342e-01,-7.284933152637984577e-02,5.044194108642754415e-01
2.851389244181470328e-01,-8.847122793346189340e-01,-5.898081197596656278e-01
-7.003795389483464806e-01,-4.318090168152424191e-01,2.945116300893533268e-01
9.481856190791488892e-01,-7.660998201830575560e-01,-4.576033283149241182e-01
9.593030376058542252e-01,-2.931567499088683082e-01,6.321312640206628863e-01
3.146361341465395700e-01,3.020473896870261576e-01,-8.369868499017811825e-01
-9.016735536548028396e-01,7.217197785938678223e-01,1.694402811285584676e-01
-9.462051925124506102e-01,4.214079840541549160e-01,8.078327721050155841e-01
3.796300857212147051e-01,-9.064830887008406002e-01,7.730093387830438978e-01
-4.297937338022144171e-01,7.110694214575841166e-01,8.721031011684976519e-02
5.143984380589510241e-01,-9.829422728671151077e-01,8.638938084310736620e-01
4.502196615998137474e-01,-4.908769391961802508e-01,7.996374985350547249e-01
8.374615607749704704e-01,-5.307840099208203100e-01,8.124861243536407596e-01
3.231479795843874570e-01,-8.752152130037993416e-01,7.198195250684673585e-01
8.773214451686064397e-01,7.125374238976422969e-01,-8.211396473482821534e-01
-7.366718417094673121e-01,2.231234637891905681e-01,-6.246666258977153774e-01
-3.026134956341048898e-01,-3.678157989632475644e-01,-5.859635353715331174e-01
-1.610775362251009035e-01,-6.177349532696425616e-01,3.491725687058206962e-01
4.950618225675667006e-01,6.564101101113117842e-02,6.893893892667111167e-01
-2.134510561468758727e-01,7.250385584255272242e-01,9.637472884806563833e-02
-5.786465735639025887e-01,5.308997845601333143e-01,9.861390147771889048e-01
-2.690780973701885070e-01,-6.260956634770633578e-01,-3.692919113666217612e-01
-1.461367427919437745e-01,3.721068993170029149e-01,2.803192525093978205e-01
-3.149784178352363906e-01,6.806014644520153034e-02,9.976957142343891860e-01
-9.098813580934439482e-01,2.817240592887926276e-01,-1.424621260059992789e-01
-2.816589583713928757e-01,9.303152605143716336e-01,-6.536325101867941356e-01
-6.378844856592753576e-01,6.246216865605704882e-01,-2.212569808537954152e-01
4.395601744443449199e-01,-3.242665834026414728e-02,7.164561109844840292e-01
-8.236683354593459239e-01,6.198354130992322908e-02,-7.486175544502393642e-02
-1.046754847590005699e-01,-2.292601399084985836e-01,-1.629494530981723255e-01
5.503380612995818488e-01,-2.001033176340212272e-01,-4.427098278502341611e-01
